LayerCount: 3
LayerSizes: 768 64 8 1
Activations: relu relu tanh
Weights: 0.27965358 -0.11257246 0.1367815 -0.12868457 0.00018579946 -0.25526437 0.024078315 0.30833068 0.3614348 0.21123557 0.23063786 0.062415577 0.11225401 0.22737612 -0.08872478 -0.3935783 0.35118115 0.26257876 0.096993506 0.40169522 0.24154982 0.10635192 0.07679752 -0.16643526 0.13260843 0.32426855 0.020039493 0.006053331 -0.04631598 0.118572034 -0.048283637 0.37703294 0.083654046 0.1278417 0.119467385 0.1829547 -0.064356774 0.14219262 0.07414062 -0.06116074 0.020728895 0.0362163 0.28136334 -0.0014055662 0.38937446 0.016598556 0.30668712 -0.105651535 0.16847259 0.121649146 0.070296064 0.121681884 0.16827677 0.16372396 0.21636456 -0.14794871 -0.046564713 0.15810494 0.10780816 0.17202838 0.10454575 0.2941578 -0.03307499 0.030309867 0.26113096 -0.19863416 0.09590928 -0.082272194 0.1777681 -0.22178057 -0.12043948 -0.06321664 -0.14411953 0.14144365 0.11554075 0.17967084 0.11413538 0.084686466 -0.17270027 -0.36605462 0.33343962 0.0196683 0.17858297 0.18958685 -0.012659969 -0.22849609 -0.12067873 0.11023134 0.09614623 0.2490292 -0.37629607 0.10945175 0.021463871 0.18815552 -0.111738406 0.061347798 0.40871605 -0.08406752 0.2176467 0.13347858 0.080764584 0.14676063 0.064494535 -0.15633273 0.03298516 0.23535338 0.018124208 0.07546432 -0.0020030616 0.15361987 0.30685213 0.21017466 0.3401434 0.02650266 0.11300692 -0.0388772 0.26449686 0.094925754 0.29275176 0.0014562089 -0.024186717 0.22817236 -0.01818217 0.16549428 -0.10375583 0.10974874 -0.34353006 0.025038367 0.20513372 0.14232774 0.28883994 0.2713567 0.4978441 0.32001314 0.3976095 -0.0436329 0.47381818 0.10033666 0.28227836 0.38156408 0.333119 0.41185448 0.1934787 0.23317981 0.41454968 0.1834512 0.3052336 0.36491877 0.26852503 0.3002381 0.40394005 -0.107704416 0.43959543 0.30713755 0.3013438 0.13768885 0.19086468 0.26235017 0.21643464 -0.27995938 0.12835997 0.19718087 0.18408643 0.39450154 -0.12534559 0.08512184 -0.29503387 -0.30371973 -0.03636692 0.085388325 0.19072051 -0.013805136 0.15839554 -0.0070801782 0.047879264 -0.69279885 -0.13778295 0.06485759 0.19739059 0.20023204 -0.10921997 0.0186325 -0.5309938 -1.0327308 -0.07302857 0.10770286 0.31021875 0.20798734 -0.01927598 -0.18595593 -0.7155899 -0.37515694 -0.162934 0.147363 0.29175562 0.35475063 0.2478944 0.3456562 0.53631324 0.3379301 0.25217378 0.2076011 0.080726035 0.66398376 0.37716836 0.28032017 0.30576518 0.30215073 0.39271796 0.26605552 0.28073025 0.38772365 0.19693713 0.4096489 0.4595022 -0.16865169 0.22926398 0.31092283 0.13671269 0.37165183 0.23629619 0.22568884 0.038181797 -0.0037936852 0.23384324 0.23954584 0.29729575 0.4041857 -0.024989543 0.14942232 0.018471096 -0.3724051 0.28227827 0.3939275 0.44189662 0.27887073 0.10656235 0.076278344 -0.2803057 -0.33899695 0.22298075 0.27840188 0.20595668 0.16072038 0.12975018 0.08387279 -0.115899615 -0.4710448 0.26975864 0.42605555 0.32586944 0.19719727 -0.024635714 -0.13802803 -0.47498658 -0.51297456 -0.0020691901 -0.050611645 -0.054767117 0.076570764 0.050375164 0.0025027916 -0.02125781 -0.0680742 -0.46832877 0.0011217026 0.6866795 0.35976562 0.47403744 0.033350054 0.13862266 0.21344347 -0.41572455 -0.03953226 0.49225244 0.26233578 0.08608242 -0.09033148 0.01435577 0.25169513 -0.06697255 0.046066903 0.26365903 0.20185548 0.069524325 -0.17202841 0.29904208 0.24524069 0.009343295 0.08648652 0.083297364 0.14296392 0.2676153 0.12440034 0.34544766 0.27929473 0.056707915 -0.04673187 0.015949704 0.022801092 0.3394149 0.47183648 0.6084557 0.37567496 0.0757505 -0.05264455 -0.016262418 0.22467959 0.22117424 0.517412 0.6634434 0.2806438 -0.07598192 -0.043970913 -0.0091363415 0.062848106 0.079121456 0.04064937 -0.040634118 0.08456014 0.33648303 0.0010927627 0.08806123 0.2224629 -0.1539811 0.01991744 0.07201582 0.06260045 0.15914428 0.2934126 0.43975875 0.14216882 0.051812455 0.19291465 0.054448817 0.3299545 -0.10412796 -0.05674873 0.4221771 0.31906658 0.12457615 -0.24447082 0.13239935 0.09809187 -0.39570874 -0.26433837 0.012833937 0.10460519 0.0134829385 0.04891754 0.06582272 -0.104026705 -0.6025856 -0.13575457 -0.1230366 0.21506993 -0.020297008 -0.07689501 -0.3038024 -0.18427756 -0.8963813 -0.5490751 -0.51612777 -0.0097919395 0.08329022 -0.18082991 -0.034333695 -0.3929333 -0.45586127 -0.8906015 -0.53074104 -0.07837491 0.20367451 0.39452925 0.38892096 0.004742987 -0.30015087 -0.44094956 -0.27468753 -0.20582579 0.38406578 0.17703006 0.45080596 -0.5116279 -0.09237134 -0.04782943 -0.010985582 -0.32144135 -0.35166568 -0.36299273 0.019305553 -0.4745525 -0.0074184607 -0.32738173 -0.28923014 -0.09049951 -0.101806305 -0.41055295 -0.36245722 -0.24535947 -0.14748703 -0.22754726 -0.19790022 -0.18403259 -0.26248005 -0.09317229 -0.36059597 0.15984023 -0.36258304 -0.1135439 -0.30483508 -0.06237923 -0.3671437 -0.035300344 -0.43564805 0.05948681 -0.2545903 -0.30830836 -0.23786981 -0.35757706 0.16023411 -0.51445746 0.05745946 -0.60804504 -0.20279436 -0.3123223 -0.6171767 -0.29260024 -0.30691317 -1.4566944 0.21386 -0.8879514 -0.22514427 -0.35564515 -0.52224165 -0.3132567 -2.5734103 0.308473 -0.22624895 -0.041651517 -0.367591 -0.036500268 -0.5266971 0.15583505 -0.7448468 -0.12538712 -0.6089979 -0.5022508 -0.15383334 -0.22659566 -0.1821196 -0.30238688 -0.24913405 -0.20735842 -0.24792483 -0.47144955 -0.24516255 -0.22066967 -0.29025874 -0.33097765 -0.17848013 -0.39342391 -0.4301206 -0.30182686 -0.38262698 -0.3007276 -0.18315484 -0.1975196 -0.30094132 -0.37663573 -0.36414912 -0.37789664 -0.4880948 -0.52983606 -0.33214048 -0.0706819 -0.30825016 -0.19066529 -0.20323732 -0.28739855 -0.58667064 -0.41881576 -0.5617004 -0.41755056 0.3552403 -0.1409004 -0.14826652 -0.27396417 -0.27150685 -0.56010085 -0.52891815 -0.29880312 -0.3973725 0.29382595 -0.6850319 -0.38123223 -0.5710729 -0.5286076 -0.43674776 -0.3502189 -0.26427472 -0.3685519 0.123424195 -1.511369 -0.42430565 0.05495077 -0.1278454 -0.19610581 -0.3482481 -0.09274248 -0.39600393 -0.37298244 -0.23311105 -0.36894372 -0.4223587 -0.42449784 -0.42314386 -0.30312192 -0.26584202 -0.076411605 -0.19439748 -0.18514882 -0.4398449 -0.39579573 -0.44928437 -0.23191771 -0.17595528 -0.19229713 -0.18824555 -0.5403335 -0.272717 -0.3297017 -0.49157703 -0.33064008 -0.3358001 -0.12214835 -0.22243053 -0.31866547 -0.34907624 -0.26725316 -0.24814421 -0.2716724 -0.3998358 -0.08828292 -0.20047975 -0.5484324 -0.33291292 -0.23410945 -0.15251799 -0.03787774 -0.013074307 0.23194255 -0.0016250225 -0.27510253 -0.25629202 -0.21146657 -0.26357535 -0.28678015 0.0013803686 0.24803427 -0.24610727 -0.4936667 -0.46565798 -0.50803334 -0.35816678 -0.47425646 -0.53887206 -0.29053086 0.064294085 -0.9384341 -0.6896473 -0.7733989 -0.76965 -0.27255058 0.13296078 -0.63116014 -0.03648052 -0.33233285 -0.332581 -0.26545998 -0.39974087 -0.0029793817 -0.26819587 -0.60181975 -0.18873703 -0.24063832 -0.299962 -0.34376213 -0.45696685 -0.46482348 -0.27605352 -0.49294674 -0.32313266 -0.33638328 -0.18223302 -0.29144517 -0.4958561 -0.48278102 -0.43610653 -0.44749168 -0.47930205 -0.22900155 -0.25573736 -0.21124546 -0.55556494 -0.4554739 -0.51191837 -0.34440833 -0.049228903 -0.3426128 -0.25701094 -0.49769324 -0.38860828 -0.43572813 -0.33428594 -0.36131695 0.07827548 -0.32369027 -0.22571066 -0.32814136 -1.3312484 -0.45793954 -0.7098545 -0.6995771 0.00255604 -0.51431245 -0.41847393 -0.48396564 -0.43104798 -1.2768854 -0.83980286 -0.93486184 0.07945495 -0.39748126 -0.56425065 -0.41506147 -0.8685268 -0.5466164 -0.69614697 -0.82645035 -0.07030202 0.049428448 0.05804421 0.076469705 -0.06775274 0.06798555 -0.04861346 -0.064193144 0.09243575 -0.26209596 -0.25737563 -0.016499752 -0.37940258 -0.16748281 -0.19605236 0.35551783 0.0063561853 -0.19738235 -0.3798469 -0.09083625 -0.6117078 -0.03931766 -0.08742192 0.39392903 0.10757108 -0.25647596 -0.34936652 -0.19851977 -0.3694178 -0.11836418 0.009672504 0.28470623 0.13786624 -0.23423184 -0.4017302 -0.1677808 -0.23097488 -0.3400314 0.20818323 -0.36908397 0.22669445 -0.60866237 -0.28969505 -0.2944305 -0.2101578 -0.5979296 0.18000028 -0.63221014 -0.67099005 -1.8504258 -0.74696004 -0.36613065 -0.500901 -0.05284985 0.07915427 -2.2778392 0.049967036 0.05673991 -0.037546113 0.055555582 0.03133054 -0.058312375 -0.030573819 -0.046904337 0.3790009 -0.028609501 0.15759927 0.12878397 0.07916519 -0.024133034 -0.0053174407 -0.1382105 0.46050662 0.40126985 0.18636383 0.12186967 0.07240879 -0.26158834 -0.20255321 -0.15119909 0.7289095 0.34307382 0.15532851 0.112307236 -0.04335244 0.10963495 -0.25805786 0.056641724 0.6335049 0.37179574 0.1702885 0.16332741 0.15295975 0.39257225 0.38582805 0.3944553 0.3565134 0.16863924 0.2754919 0.124330506 0.44993573 0.31683257 0.49812567 0.1591714 0.48159614 0.21191627 0.25850254 0.29624152 0.26474726 -0.1303098 -0.20990258 -0.8493059 0.7314798 0.15946937 0.056362104 0.017537056 -0.026844159 -0.4190862 -0.12266336 -1.0875058 -0.06975515 0.46063077 0.13038628 0.39886683 0.0045700395 -0.6677446 -0.8141047 -1.0780182 0.43575454 0.18919992 0.24037781 0.16834356 0.2038365 0.049347803 0.3755011 0.025338259 0.0044084825 0.3248279 0.07333012 -0.0069065047 0.529652 0.040547986 0.3512972 0.14683251 0.05401278 -0.14070226 0.212777 -0.14160503 -0.3509202 0.49369058 -0.64777493 0.4164733 -0.046928365 0.0019412162 -0.10237238 0.1414457 -0.25245845 0.2149225 -0.21843076 0.14070728 -0.09981292 0.16681701 -0.089909576 -0.2327673 -0.1921225 -0.061544348 0.26105288 -0.045555715 0.11687003 -0.014013769 -0.50759095 0.051006895 0.054468162 -0.13668725 -0.09832603 0.09106354 0.38047504 0.1586691 0.1325633 -0.035820883 0.06506488 -0.042324487 0.14596403 0.41125527 0.047667406 0.059354987 0.043661825 0.09075257 -0.25967085 0.3560295 0.3877619 0.339787 0.3692309 0.23814656 -0.02137738 0.07969379 0.302075 -0.08203301 -0.054726575 -0.39371508 -0.09180043 -0.25517637 -0.0086243525 0.2626202 -0.003989435 0.16138873 -0.70670354 0.096783414 0.19460197 -0.1301789 -0.16888088 -0.41170105 0.19783631 -0.23313238 -0.041542105 -0.5341928 -0.50416017 0.1471174 -0.42220294 -0.06959314 -0.45627734 -0.08646671 -0.1542833 -0.16469583 -0.030913545 -0.43554524 0.004803447 -0.5148415 -0.30552125 -0.40538305 -0.19640195 -0.25032923 -0.34900942 -0.15228163 -0.7878313 -0.22808972 -0.26078317 -0.6009579 -0.36106777 0.018401435 0.116751015 -0.63906795 -0.47840884 -0.37924835 -0.19744849 -0.108936645 -0.766821 0.05668603 -0.5537803 -0.13548492 0.07358525 -0.19215733 -0.3414497 0.2692939 -0.24687392 -0.19457775 -0.079700895 0.14420779 -0.04429482 0.05446937 -0.0115185855 0.13924 -0.056363195 0.24913369 -0.050550662 0.006027305 -0.12796833 0.046412382 -0.1590045 0.08533062 0.29840094 0.2344543 0.0103326645 -0.02943603 0.104883626 0.16842304 0.14559995 0.12086358 0.2364341 0.35069326 0.17292562 0.059330154 0.003332846 0.107406 0.04048494 0.012557827 -0.0065826233 0.27359676 0.06265749 -0.09900727 -0.0861042 -0.18604556 -0.048385605 -0.2683181 -0.15231721 -0.107827306 -0.01265571 -0.24777617 -0.19237964 -0.059885055 -0.33574328 -0.22749837 -0.20701553 0.10493124 0.10677546 0.09107287 -0.2565297 -0.11941798 -0.28965476 -0.3290609 0.076099545 0.40929464 0.17932756 0.08341133 -0.2577524 -0.1421839 -0.46724984 -0.20362666 0.3052143 1.1253514 0.24915919 -0.28598452 -0.28860056 -0.26074484 -0.15718548 -0.36186165 -0.031994577 0.1315851 -0.062454674 -0.18699847 -0.34605432 -0.119099684 -0.30983728 0.15806647 0.04247665 0.5176034 -0.117264256 -0.1796319 -0.4569066 -0.5093387 -0.1518663 -0.5194478 -0.0740805 -0.24719912 -0.13928936 -0.116348535 -0.44918364 -0.44662318 -0.53966355 -0.23468219 -0.22319648 -0.22785637 -0.25961632 -0.43766117 -0.30746627 -0.61186844 -0.24940535 -0.3244344 -0.23642321 -0.20082924 -0.42274398 -0.37062398 -0.3771651 -0.21871229 -0.42373425 -0.30734947 -0.2361874 0.09861243 -0.04968483 -0.41772673 -0.4516126 -0.4035607 -0.4356436 -0.17095552 -0.06202213 0.49047285 -0.20765118 -0.33380458 -0.43161994 -0.41357863 -0.2910805 -0.075419605 -0.10212809 0.74759007 -0.012525111 0.029111966 -0.072351575 -0.06797966 0.031183794 0.0041435063 0.06992678 -0.029377505 0.39291188 0.84309995 0.38096377 0.8716185 0.44538644 0.29524532 -0.5118174 0.8072455 0.32646507 0.42067108 0.4570707 0.71110797 0.27875593 -0.0029289145 0.1442964 0.5433757 0.18670832 0.10994418 -0.0033261606 0.3184303 -0.18113892 0.007839341 0.033715468 0.51500577 0.18650275 0.10173153 -0.27197245 -0.04389581 -0.51330245 -0.088479295 0.17405635 0.71674573 0.16525467 0.083914645 -0.6015316 -0.014826418 -0.0144566465 -0.35168105 0.32667553 0.77185684 0.3659889 0.18237692 -0.3215301 0.41657814 -0.12491928 0.021423537 0.23817697 0.88482493 -0.021597207 -0.021773271 -0.0365538 0.05334647 0.07048163 -0.0555505 -0.07028993 0.026001446 -0.015261608 -0.093937576 0.033635892 0.19232441 -0.08353611 -0.2737014 0.019152822 0.27327743 -0.10364273 0.14971873 -0.29387373 0.019828152 -0.17691755 -0.38432065 -0.19857265 0.041085582 0.25293142 0.00056803983 0.07785641 0.096470684 0.04577818 0.13845153 0.07046717 0.08968926 0.14887987 0.14481659 -0.037461165 0.15388384 0.062068284 0.24319878 0.20069234 0.17865054 0.35231885 0.087466136 0.0027911575 -0.2963243 -0.027822591 0.11239257 0.12191667 0.21660323 0.060926784 0.06277774 -0.36609495 -0.116083 -0.23100147 -0.09422054 0.035032734 0.60432 0.081879236 0.0646852 -0.06764118 -0.32427272 -0.18474905 -0.101383865 0.29153293 0.16140345 -0.13775876 0.027315777 -0.043770768 -0.29236284 -0.33641577 0.16643015 0.09685434 0.24527986 0.081631556 0.182202 0.030629724 -0.19264083 -0.049130812 -0.2946182 -0.01854034 -0.3789999 0.07471484 -0.2993864 0.079472765 -0.029351303 0.13875455 -0.02703759 -0.30060872 -0.17084031 0.075830914 0.027089762 0.027578218 0.13560428 -0.1754279 0.11521495 -0.14733507 -0.1482061 -0.18381426 -0.52933717 0.11304502 -0.12445403 0.02204346 -0.33592486 -0.09356333 -0.32850373 -0.1347113 0.18562347 -0.43347564 0.026280541 0.06996911 -0.53439826 -0.10500634 -0.22825316 -0.045480672 -0.0027235842 -0.059206843 -0.063584894 -0.46845466 -0.50266397 0.42549494 -0.07235121 -0.03717786 -0.29076532 0.07222057 -0.3761999 -0.5045468 -0.017098395 -0.7428956 -0.539756 0.23433599 -0.31261185 -0.31242946 -0.74816525 -0.42810622 -0.46892565 -0.25237313 -0.50827724 0.5352581 -0.06381481 0.21576238 0.061005432 0.23780008 -0.04512395 -0.22589925 0.2838556 0.084678896 0.65366346 0.1658996 0.44467053 0.17158373 0.23081885 0.3795778 0.76119787 0.3715345 0.22521606 0.7387436 0.3433209 0.3247509 0.27521163 0.5921692 -0.07562449 -0.17257549 0.3810806 0.15788637 0.5920192 0.053149495 0.34976935 -0.26198336 -0.041777365 0.1762071 -0.20573576 0.20157795 0.06173656 0.60484123 -0.38200375 0.05611685 0.056787252 0.15518884 0.4466511 0.057083897 0.5562768 -0.11532121 0.36277035 -0.014583809 0.6459916 0.47924876 0.15957378 0.10232945 0.09107026 0.17271662 -0.26622665 0.51551926 -0.47094804 0.72526985 0.3236339 0.07056122 -0.18633556 -0.09742278 0.18121898 0.25607282 0.4930193 -0.0150283985 0.0011013824 -0.014599794 -0.07262401 0.060879935 0.27597737 -0.032126524 0.05450271 0.161763 0.014072429 0.081108786 -0.055464946 0.18410456 0.074375205 -0.18802789 -0.060933016 0.066367365 0.25146064 0.1261258 0.17976026 0.1526077 0.2024579 -0.11377078 0.14723855 0.16140503 0.37710932 0.30357948 0.1106488 0.4347706 0.17516553 0.14776288 0.31075847 0.12263507 0.24687386 0.0147153735 0.31417504 -0.01435554 -0.0067718863 0.09069285 0.4564316 0.07304938 0.10793438 -0.08776963 -0.08263748 -0.08596325 -0.13434553 0.03646741 0.4136512 0.1753895 0.23535575 -0.0407817 0.16279793 0.058257565 -0.025618466 -0.21830727 0.56729597 0.29981232 0.29858896 0.1956506 0.27983084 0.09227135 0.09018749 0.106173314 0.5466021 0.2816559 -0.2964886 -0.23826107 -0.024990125 -0.06365914 0.06445552 0.003052304 -0.11026896 -0.14480351 0.1560403 0.027207127 -0.03265855 0.15844382 0.15586023 0.054815456 -0.50768566 0.2166418 0.15028906 0.38035336 0.2549564 0.19916481 0.25976792 0.12792045 -0.0010725184 0.20015937 0.3337853 0.297305 0.48757705 0.5298891 0.4117639 0.020171227 -0.20852628 0.34881702 0.27718526 0.34075636 0.33256412 0.57790697 0.30142877 0.07511668 -0.06640725 0.16581921 0.3239509 0.40810332 0.33842477 0.17101474 0.38665223 0.19252366 -0.045639716 0.58164966 0.47491226 0.25089863 0.30789807 0.2202243 0.13450849 0.36724946 0.13827033 0.74752694 0.32942343 0.34963053 0.24137527 0.0106440205 0.27359182 0.30183965 0.28855202 0.067441046 -0.07603775 0.04107377 0.03237956 0.062371388 -0.056638256 -0.038822565 0.0034627095 -0.25881577 -0.105205245 0.056626122 0.15584216 0.12335805 -0.2868373 -0.14536111 -0.098376796 -0.20017055 -0.11391933 -0.13799591 0.014765926 -0.114852674 -0.29947084 -0.18145171 -0.17569427 -0.21317141 -0.067160964 0.013936822 -0.24038634 -0.3017705 -0.35927954 -0.27556837 -0.27774927 -0.17050534 -0.12620123 0.28702614 -0.086317256 -0.38341838 -0.1131143 -0.3149613 -0.3525714 -0.23908453 -0.034035806 0.29830903 0.26697597 0.35704345 -0.37444797 -0.27127856 -0.7180426 -0.36276498 -0.10464617 0.20931084 0.4805919 0.50859797 0.11472091 -0.30028865 -1.1172857 0.08420411 -0.020487182 0.019864902 0.04976663 -0.023030978 -0.052884318 0.081352934 0.03438977 0.21557002 0.2733623 0.1942811 0.58919275 0.077572554 0.12641063 -0.14702107 0.07290655 0.3755649 0.2804951 0.4816359 0.44363812 0.3506794 0.02100135 0.049712833 -0.07433456 0.24287002 0.21887693 0.22887893 0.41013137 0.10977139 0.051416095 -0.0565887 -0.072638884 0.1388027 -0.015670069 0.114946514 0.06840322 -0.0774674 -0.4123657 -0.28394622 -0.7193943 -0.09806449 -0.33085015 -0.41367018 -0.30298823 -0.3380739 -0.40901715 -0.42940632 -0.50970525 -0.32566345 -0.3011197 -0.51290846 -0.46431062 -0.4478783 -0.45414868 -0.6190955 -0.33211368 -0.40173393 -0.33307138 -0.43072277 -0.32495946 -0.598346 -0.34621024 -0.7841371 -0.54239285 -0.34888124 -0.2754699 -0.20063733 -0.30910903 -0.458705 -0.3481167 -0.44627878 0.034777842 0.05941867 0.33524188 0.111544825 0.054427724 0.07153047 0.09082132 -0.42565665 -0.15507579 0.18080013 0.07860075 0.08801063 0.11080903 0.05547427 -0.08302561 0.16306491 -0.11296955 0.21648371 0.08511514 0.19805668 0.120120935 -0.015805587 -0.02010436 -0.040055625 0.15250011 0.18083015 0.08548447 0.13797347 0.07466089 0.077043034 0.118571214 0.02455624 -0.06478975 0.09901332 0.22192715 0.064329945 0.12970737 0.103310086 0.008358843 0.056533724 -0.04673104 0.032958943 0.1360283 0.14057556 0.13354982 0.06618612 0.08303472 -0.048937265 -0.039835524 0.019155346 0.15565586 0.18019961 0.059812184 0.019830707 -0.23164746 -0.25292465 -0.21923071 0.13523966 0.10084088 0.23814511 0.0072856555 0.19946992 -0.008330245 -0.10787881 -0.425624 -0.20507698 0.1170195 0.22560397 0.31248382 0.07839903 0.22741519 0.051794827 0.04842215 -0.13817665 0.09931886 0.044592593 0.15826812 0.1869813 0.11795184 0.15091941 0.08519722 0.31612283 0.08845759 0.20815465 0.22856179 0.051786844 0.23022391 0.051597156 0.08029772 0.21191932 0.21288377 0.2693092 0.1886162 0.13391502 0.15954426 0.15331429 0.034978867 0.14739972 0.2279595 0.21140838 0.2600233 0.19467765 0.1060836 0.06347508 0.02446045 0.18981637 0.18577926 0.22336847 0.15791155 0.11094433 0.15462077 0.017012972 0.12079065 0.10619044 0.22095792 0.15698142 0.10471609 0.05434828 -0.034047622 -0.051752925 -0.1316018 0.04164166 0.11485983 -0.005012224 0.032994036 0.07332728 0.10068733 -0.24557987 0.20726418 -0.07779352 0.23002578 0.2179423 0.14987864 0.06618963 0.09545331 -0.028624287 0.04922649 0.25928319 0.36515683 0.2870401 0.30891645 0.11010918 0.06256189 0.035046715 0.04549913 0.13932756 0.36777556 0.25216538 0.14032523 -0.023154384 -0.070588335 0.02854404 0.0062917774 0.159441 0.27879238 0.2704925 0.08398972 0.005214832 -0.013296469 -0.10249121 -0.020351933 0.05856415 0.17591754 0.123951726 0.017303322 -0.002382518 -0.014006739 -0.1068839 -0.045399185 0.14854869 0.28175002 0.1638222 0.14668028 0.0089232335 0.05469874 -0.07004248 -0.06548941 0.021691665 0.10790488 0.23742394 0.06727332 0.09186896 0.050916962 -0.029514836 0.1440804 -0.10956237 0.07541967 0.082202554 0.07685596 0.052529395 0.05777479 0.13919292 0.04384683 -0.037594832 0.11930584 0.1024747 0.025621364 0.07179195 -0.06089447 -0.27761966 -0.14381503 0.06630529 0.20072432 0.14482635 0.10858295 0.18327618 -0.028166294 0.15070833 -0.008220914 0.106561854 0.050492756 0.19938205 0.04362825 0.034378342 0.09447059 -0.083893426 -0.07557251 -0.031884592 0.07697482 0.08779491 0.07417187 0.005100118 -0.013060861 -0.1125208 -0.2905355 -0.1779529 -0.10663557 -0.031647127 -0.032972224 -0.051079698 -0.06544915 -0.12884182 -0.20429085 -0.15980251 -0.08535003 -0.034160335 -0.1355508 -0.07191789 0.025422307 -0.11678254 -0.14908318 -0.41173077 -0.21909042 -0.2682164 -0.24843852 -0.1381142 -0.22790782 -0.060931135 -0.07023111 -0.29185775 -0.52111375 -0.32159287 -0.52509946 -0.3516825 -0.07931976 0.0029423137 -0.050068792 -0.083114386 -0.017357975 -0.0036222562 -0.054433007 -0.0700952 0.044776022 -0.059511706 -0.06441102 0.25154188 0.12236222 0.20194654 0.22718072 0.1505897 -0.08348054 0.019512335 -0.25531504 0.2032094 0.21592076 0.19596925 0.104503654 0.13535814 0.10776646 0.003643859 -0.087424934 0.29372138 0.19795123 0.18291298 0.09112085 0.045433052 0.022825884 -0.026144354 -0.0041772486 0.2533946 0.22046764 0.14232768 0.13742262 0.0031890615 -0.04041465 -0.08522282 -0.10071189 0.26135612 0.31910214 0.20926385 0.043025848 0.03286491 0.035030544 -0.13595483 -0.11189116 0.2636531 0.29050666 0.34466764 0.14964749 -0.04695394 -0.08725871 -0.14480945 -0.054529868 -0.063672245 -0.017307743 0.05904886 0.002722025 0.06993675 -0.08488144 0.015421584 0.0492322 -0.281253 -0.07137988 0.15377353 -0.23800449 0.17882976 0.24996759 -0.022556461 -0.43316016 0.24256524 0.31619245 0.29886067 0.05368281 0.1596742 -0.11627798 -0.119593315 -0.3499257 0.3110534 0.36805895 0.2965205 0.3263594 0.22718452 -0.03617416 -0.15881522 0.052136272 0.22747894 0.34458575 0.34771746 0.2882368 0.25830552 -0.090155154 -0.19594245 -0.32509056 0.3419753 0.45243245 0.44220588 0.38508296 0.18425873 -0.025817357 -0.21413425 -0.44054452 0.7276817 0.6804605 0.7746123 0.5389339 0.1608951 -0.13152076 -0.49539432 -0.55226696 0.88047403 0.84254426 0.9343612 0.5602517 0.15555756 -0.41275063 -0.6631513 -0.801074 0.8959428 1.0714551 0.9201057 0.61732686 -0.15988185 -0.32712734 -0.63184834 -0.8235839 -0.1575371 -0.038496893 -0.1214521 -0.06193233 -0.010992724 0.0022049127 -0.019833308 0.0058206315 -0.14802259 -0.09932624 -0.014296815 -0.05815522 -0.029589979 -0.048467208 0.010680909 0.0052406383 -0.14270546 -0.15924112 -0.09606869 -0.09178188 -0.027021112 -0.05393796 -0.06885968 0.0065661296 -0.3138873 -0.34250626 -0.09285722 -0.12624256 -0.0492913 -0.062118836 -0.029431297 0.02366161 -0.37516496 -0.20028926 -0.3965397 -0.23189631 -0.13131614 -0.06271343 -0.013808273 0.12112216 -0.39215338 -0.2466278 -0.3480893 -0.10354362 -0.05202773 0.019192545 -0.13446262 0.003599936 -0.21235996 -0.20468615 0.07254247 -0.26130444 -0.21168269 0.13404797 -0.19835654 0.007552913 -0.09000011 -0.12941545 -0.26343814 0.2488852 0.07772029 -0.12460495 -0.17050292 -0.08766841 -0.18719731 -0.013036427 -0.21543705 -0.086535975 -0.13753814 -0.17356278 -0.32475325 -0.31528807 -0.15508641 -0.12538563 -0.029145848 -0.20923446 -0.15038916 -0.21078277 -0.29434448 -0.25445616 -0.119918816 -0.061838794 -0.17269637 -0.106462784 -0.28764844 -0.19343083 -0.29793948 -0.33007255 -0.05216377 -0.31928155 -0.11456094 -0.22015652 -0.15445592 -0.30214468 -0.29099682 -0.30917794 -0.37058106 -0.14091982 -0.24159825 -0.15905315 -0.18082611 -0.24902715 -0.31930414 -0.23611069 -0.41119593 -0.29109928 -0.14547026 -0.20774016 -0.24291277 -0.16650109 0.11989909 -0.18794785 -0.2979992 -0.31030703 -0.23581018 -0.1456151 -0.10069632 0.0045379866 -0.33561662 0.086681984 -0.22375095 -0.2979444 -0.21342038 -0.20683831 -0.060844705 -0.28228304 0.16620764 -0.14755382 -0.2991995 -0.31880274 -0.3067785 -0.300723 -0.34520993 -0.28725648 -0.18124361 -0.16513357 -0.35322085 -0.29470173 -0.3542682 -0.28940958 -0.45812887 -0.24389088 -0.15185265 -0.21994163 -0.39748868 -0.35038006 -0.43298173 -0.32687908 -0.34800497 -0.30875757 -0.25653225 -0.14170846 -0.505783 -0.51386964 -0.4622299 -0.36962765 -0.38179606 -0.26923266 -0.17882559 -0.14094701 -0.5831282 -0.57463914 -0.4824257 -0.3546464 -0.31495872 -0.34211636 -0.18051615 -0.17866063 -0.5084615 -0.46168503 -0.3508917 -0.31521064 -0.28796855 -0.37581792 -0.32496876 -0.41303352 -0.44273773 -0.4010882 -0.35452774 -0.3719025 -0.40890878 -0.5571865 -0.40361288 -0.25313044 -0.60541743 -0.14503776 -0.3020481 -0.28315008 -0.39388266 -0.3136479 -0.48676035 -0.3322991 -0.89354795 -0.5908294 -0.6831396 -0.64632636 -0.69412607 -0.6099355 -0.5826492 -0.75690174 -1.0305387 -0.84397554 -0.7197552 -0.6757539 -0.72641075 -0.71972126 -0.41869992 -0.4565776 -1.0553384 -0.74226934 -0.8216983 -0.8534398 -0.802847 -0.7721933 -0.7229791 -0.80830103 -0.83387 -0.98289996 -0.97251767 -0.87964374 -0.8087594 -0.8516187 -0.88095033 -0.82836473 -1.1786138 -1.0169573 -1.1914281 -1.0747048 -1.0085648 -1.0059826 -0.878662 -0.6345687 -1.6852924 -1.5819665 -1.5236771 -1.3889338 -1.0910159 -0.7879196 -0.631705 -0.55812556 -1.4781121 -1.319257 -1.5300318 -1.3667058 -1.1001146 -0.7253764 -0.59536266 -0.38118848 -1.6394646 -1.1873488 -1.1893157 -1.2790855 -0.93358886 -0.8037848 -0.70777464 -0.5571923 -0.049940005 0.082768306 0.040398 0.027118236 0.039974585 0.011032 -0.065356605 -0.037145328 0.04230946 0.067115426 0.028270455 0.01604505 -0.3536798 -0.0602694 -0.018064171 -0.0762931 0.080637515 0.07004727 -0.0039047424 -0.12539938 -0.15902472 -0.060229104 0.020114025 -0.028076516 -0.0070082685 0.008958586 0.009597605 -0.06786937 -0.05144625 -0.036974538 0.091357686 -0.001982842 -0.06808683 -0.00048225297 -0.15474662 -0.10686612 0.009980505 0.05538269 0.17004842 0.049489252 -0.13118263 0.06315755 -0.008221025 0.047515195 0.037992727 0.055218555 0.17348757 -0.013000398 -0.11350325 0.3098836 0.0037756294 -0.057817485 -0.19687138 -0.10484041 -2.815753 -2.2149458 0.009891786 -0.07909775 -0.016351633 -0.009780854 0.07404043 -0.07003529 -0.07791866 0.0775549 0.030344037 0.27131233 0.25801897 0.29226053 0.3182485 0.2602844 0.24957858 0.27985907 0.25470892 0.17391634 0.17554684 0.26133266 0.25962543 0.15851519 0.25865024 0.29771522 0.16523446 0.24601638 0.05467697 0.09396416 0.063915156 0.08524769 0.06362595 0.096354485 0.16779944 0.1880248 0.25587514 0.013149804 -0.07878942 -0.0019252567 -0.045028985 0.08964907 0.31342706 0.34861094 0.12625019 0.049912177 -0.13080585 -0.13135475 -0.08971972 -0.15140127 0.19776648 0.24287328 0.046162765 0.033733524 -0.037289817 0.1028723 0.12341418 0.25505105 0.08300162 -0.013970485 0.041914992 -0.076761484 -0.056025874 0.0226245 0.2058776 0.47947535 0.49932632 0.0099937795 0.02542309 -0.052982476 -0.159201 0.29853675 0.1220298 0.42223212 -0.028731987 0.24275325 0.2616629 -0.38751996 0.3457652 -0.4237748 0.4147143 -0.3524824 0.14566022 -0.024653787 0.33673412 -0.09016143 -0.12680252 -0.47940975 0.34171197 -0.038305283 -0.0027387734 0.16181344 0.15338111 -0.043694988 -0.0032010316 -0.15519448 -0.228363 -0.11110861 0.23272666 0.36565772 -0.1436093 0.09557288 -0.2994251 -0.057735555 -0.24639598 0.13824987 -0.04694477 0.19262947 0.05165678 0.15699586 -0.20688036 -0.07802042 -0.34623024 -0.13053136 0.35376766 0.10614113 0.18522905 -0.09623347 0.035466302 -0.21756916 -0.018769778 -0.13032414 0.22531323 0.40946624 0.010092893 0.23358928 -0.030411629 -0.118102245 -0.21891324 0.20184878 0.18172593 0.45386943 0.35000303 -0.17107789 0.022808386 -0.17408888 0.2608171 -0.44989544 0.1483229 0.17752108 0.09073461 0.16069552 0.2092869 0.14195804 0.28653583 -0.19213898 -0.1472909 0.09162783 0.15720427 0.10826114 0.43382317 -0.13184856 0.30544597 0.0055406755 0.0060207504 0.08947305 0.07174287 0.27957198 -0.19908145 0.471546 -0.1292702 0.2036206 0.15663794 0.008061283 0.0009943299 0.20259 0.027217204 -0.11438793 0.11802268 -0.09396983 0.17009644 0.11966899 0.117608264 -0.0615493 0.012161054 0.020080144 0.1939599 -0.20017624 0.29164973 0.0038628406 0.33020228 -0.11029638 0.20417418 -0.34731543 -0.08880736 0.05112652 0.19479425 0.4943489 0.09551328 0.050864343 0.15125981 -0.10959785 0.10759513 -0.10577367 0.63314295 -0.28882962 0.270982 0.13631436 -0.27582425 0.13888133 -0.5049633 -0.082992025 0.056193717 0.03325478 -0.10492936 -0.1860845 -0.009385373 -0.05289618 -0.40490398 -0.00082319556 0.12929356 0.22697091 0.12408716 -0.007551923 0.094093055 0.015133861 0.20922793 0.15532805 0.2087531 0.34359267 0.16677304 0.28565106 0.2043012 0.23684582 0.06223834 0.22822084 0.31495625 0.2284975 0.2624924 0.35930702 0.094463296 0.34045157 0.07314544 0.24540196 0.35447368 0.3158854 0.23080328 0.48874986 0.27295744 0.28083903 0.22587295 0.43580475 0.40071023 0.17672247 0.38430598 0.25236434 0.4705101 0.06860444 -0.036922958 0.09493019 0.2622342 0.21544628 0.19977859 0.24215713 -0.20009978 0.25624353 -0.39830667 0.078972556 0.23352179 0.2765277 0.256746 0.25622535 0.100906804 -0.2714517 -0.12247327 0.28724808 -0.10649118 -0.13028091 -0.34070954 -0.16544534 -0.39061087 -0.32749584 0.02928701 0.09184917 0.2853904 0.37311557 0.23576811 0.028194156 0.04368904 0.24083413 0.32424816 0.16351059 0.30780837 0.40675125 0.04310838 0.13491225 -0.07704319 0.019377507 0.064726815 0.27033117 0.47773656 0.23838806 0.30398044 0.2759223 -0.07357858 -0.15696092 0.035706352 -0.048144244 0.48969194 0.4803494 0.40231195 0.19554815 -0.028983885 0.15989976 -0.05136227 0.19030628 0.43446308 0.36338866 0.3425962 0.25626066 0.1727938 -0.24657139 0.0968771 0.0691714 0.48905826 0.359112 0.3491264 0.109374486 -0.22728196 0.16732132 -0.21848574 0.3760105 0.46013862 0.3194948 0.3126903 0.18624426 -0.17556246 0.0063013225 -0.104614906 0.21772753 0.029382624 -0.065023765 0.015389852 0.05381593 0.06989357 0.025912806 -0.04026644 -0.044681795 -0.055976156 0.07136292 -0.09656019 -0.06170896 -0.17342936 0.34443393 -0.30718917 0.30000857 -0.21374415 0.2843142 -0.22721413 0.09440237 -0.3312171 1.0020612 -0.65619665 0.4807442 -0.07993341 0.22061908 -0.5329481 0.2695841 -0.52178854 0.75560766 -0.60432106 0.44394392 -0.03458812 0.14260533 -0.3003899 0.4179394 -0.41749015 0.2895444 -0.25594994 0.3894979 -0.0549826 0.27223316 -0.06845994 0.0053019584 -0.22875857 -0.20190665 -0.20428611 0.19946896 0.030416463 0.21568069 -0.06189364 -0.1029763 -0.028994486 -0.9646643 -0.077887625 0.087062836 -0.08288536 0.029261306 0.012834698 0.066029444 0.0178411 0.023763523 0.003878899 0.0062946156 -1.09191 -1.0888399 -0.7473717 -0.79828936 -1.0467542 -1.5366356 -0.9118506 -0.5123499 -0.8904818 -0.7734104 -0.95926225 -0.9945612 -1.0197467 -0.8262132 -1.3184046 -0.24433859 -0.6288941 -0.7793759 -0.53684896 -0.10833309 -0.39566922 0.023713756 -0.6508539 0.063540086 -0.06494356 -0.2371428 0.08075166 0.2538777 0.2554001 0.16045679 0.06066482 0.05359563 -0.36761096 -0.16110411 0.052799754 0.39878836 0.3343912 0.45099884 0.21221851 0.022418775 -0.6801197 -0.7749221 0.5285766 0.32480848 0.43639803 -0.020891098 0.15366803 -0.18292676 -1.5659956 -0.60283 -0.09465064 0.3252111 0.13652955 0.18021724 0.008532834 -0.09498507 -1.4507259 -1.0604136 0.04484434 -0.07815181 0.15514736 0.15430978 0.122818165 -0.24080132 -0.15263799 -0.39372048 0.19883275 -0.28793642 0.13291796 -0.38773543 -0.018050045 -0.4480768 -0.03416288 -0.054922372 -0.23431912 -0.09315682 0.07423474 -0.15421252 -0.21920244 -0.20064898 -0.33084986 -0.13302818 -0.08672709 0.076577246 -0.20038158 0.3456799 -0.35878342 0.2313229 -0.003955317 -0.18629427 -0.21371813 0.5203889 -0.43545714 0.5672989 -0.53058976 0.28179994 -0.4207696 0.17713265 0.027063893 -0.08033098 0.2540991 -0.1018038 0.50860655 -0.12851596 -0.20263092 -0.089431375 -0.20824133 0.23432924 0.19453652 -0.5041245 -0.14514638 -0.03346736 0.07403349 -0.31260678 0.105984606 -0.35024482 0.35661563 0.36320817 0.09970414 -0.5353304 0.06462287 -0.10646201 -0.11367715 0.34054515 -0.13502607 0.15594906 -0.23625627 0.6543781 -0.12671956 0.22305122 -0.40931067 -0.08450533 -0.14471518 0.10247628 -0.14035429 -0.5628787 0.21178903 -0.094024725 -0.02357474 -0.015213034 0.14058569 0.14189753 -0.27642995 -0.3131513 -0.0811763 0.27314386 -0.0693352 0.10305965 -0.078304715 0.06591838 -0.31946537 0.26712233 0.17289238 -0.19264978 0.41851252 0.13765633 0.0716652 0.07481129 0.1705299 -0.2830335 -0.16197915 0.20622423 -0.3572559 0.3529791 0.095872104 0.35474113 -0.40392944 0.40134797 0.114150405 -0.106410496 -0.28116122 -0.2573033 0.70307666 -0.7647203 0.53107536 -0.12022664 -0.09850548 -0.1194943 -0.22073433 0.28370276 -0.40958822 0.05283499 -0.07584046 -0.3022732 -0.069062136 0.013205631 0.10694334 -0.05708654 0.3677457 -0.23118098 0.57835454 -0.36133665 -0.2120613 -0.1898181 -0.021873113 -0.22018214 -0.1743802 -0.30096886 0.12922196 -0.25772703 -0.48384345 -0.16679962 -0.07191509 -0.27699673 -0.2928429 -0.50090855 0.05147971 -0.3107497 -0.27353978 -0.09614571 -0.0059646834 -0.32836726 -0.16879922 -0.15174077 -0.038671717 -0.56182367 -0.21511902 -0.017044801 -0.09917512 -0.05377711 -0.10102987 -0.13420999 -0.19547129 -0.42446357 -0.08186782 -0.1610597 -0.050059732 -0.07164818 0.0635673 -0.03817618 0.14945395 -0.009935719 0.06227739 0.16522625 0.1248904 0.1966446 0.06180835 0.22455733 0.04568009 0.23817779 0.24997085 0.34207478 0.42311233 0.38758567 0.4668551 -0.048545387 0.45817223 0.44698498 0.2285952 0.23106648 0.3348082 0.028279208 0.19823998 0.21957621 0.09384733 0.31879887 -0.04096946 0.6573009 0.1889867 0.40006453 0.11173086 0.27965793 0.38122043 -0.036060315 0.65541935 0.4153254 0.42721188 0.28735107 0.30859944 0.2606238 0.29673454 0.1491577 0.2530706 0.7760594 0.33878338 0.3672469 0.29730397 0.4018466 0.46803203 0.40446842 0.3004051 0.27740845 0.6300409 0.32008827 0.5117678 0.4867884 0.44629982 0.18894157 0.20261231 0.31944337 0.25515875 0.7958575 0.59615374 0.80084074 0.29098302 0.7732432 0.2821634 0.50343746 0.39820814 0.5538722 0.9590615 0.85161245 0.9366653 0.6282327 0.3366167 0.63488156 0.69902 0.9708571 1.1439692 0.94243884 0.96245354 0.8187247 -0.22991872 0.6230645 0.8080978 0.7469934 1.1295608 0.90921265 0.9685899 0.39540103 0.010392889 -0.040062897 -0.0437632 0.070889875 0.026719198 -0.058967132 -0.024246182 0.07551266 -0.1412435 0.09663305 -0.15137132 0.19558324 -0.18100505 0.20364259 -0.036213692 -0.19228481 0.008895786 -0.13195 -0.05804236 -0.20582466 0.23891887 0.0405469 -0.13159408 -0.09370337 -0.09091756 -0.03462398 -0.18940136 0.05268566 0.2662731 0.08669996 -0.29294306 -0.048580635 -0.087106645 -0.2540205 -0.15642758 -0.13866645 -0.1243615 -0.09609372 -0.17668611 -0.05605429 -0.11760811 -0.48642448 -0.40809005 -0.16553754 -0.41627702 0.0247921 -0.26350778 0.14973605 -0.22136874 -0.3172382 -0.6765086 -0.43497962 -0.52209646 -0.545838 0.39677134 0.47256246 -0.06472808 -0.041745216 0.027058855 0.025993675 0.039917402 0.0077449083 -0.05009416 -0.060264703 0.19088253 0.23988414 0.1514978 0.16291763 0.12006366 -0.017858518 0.13070568 0.29120818 0.048358653 0.07329841 -0.06745303 0.18855287 -0.05501106 0.21291442 0.03218491 0.18696606 -0.51507396 -0.14504659 -0.19391751 -0.2978533 -0.18374239 -0.10491152 -0.040547702 0.07467292 -0.5563772 -0.53451467 -0.61548674 -0.26736662 -0.3687432 -0.15723029 -0.122830704 0.105673455 -0.5892524 -0.75796366 -0.47191927 -0.52334154 -0.014892079 -0.4421457 -0.01719088 -0.04817514 -0.4426959 -0.70628005 -0.84069926 -0.56260616 -1.3601182 -0.28066492 -0.9258649 0.096085615 -0.62867355 -0.5821419 -1.2200791 -1.2739261 -1.5151846 -1.071665 -0.9039675 -0.36367834 -0.15872864 -0.5771511 -0.51161456 -0.6676131 -0.35317838 -0.7032965 -0.4071983 -0.76110613 -0.07592034 0.0017966579 0.27718765 0.17070937 0.17324978 0.109494194 0.069085054 0.6358746 0.6974816 -0.17982557 0.47352874 -0.63970155 0.3048057 0.07459033 0.57055825 -0.07312311 0.0843554 0.13314721 0.25324333 0.22195217 0.0657695 -0.10897103 0.1604387 0.25628227 -0.27394316 0.6010991 -0.23482855 0.46907008 0.015851406 0.1422235 0.2282882 -0.071558096 -0.32092845 0.14824101 -0.17557092 0.40457237 -0.4745591 0.7889078 -0.32228565 0.37496752 -0.13250749 -0.41089612 0.13315286 -0.032794327 0.122845404 -0.068427056 0.05781486 0.37292957 0.17524679 -0.49787253 0.05784602 -0.38430956 0.36116618 -0.36191016 0.21118811 -0.2234077 0.17857412 -0.07459546 -0.21313171 -0.04398918 -0.033893827 -0.3450849 0.12067905 -0.20555559 0.10715456 0.034516748 0.4772572 -0.19271024 0.24691951 -0.32280427 0.5667779 -0.6402384 -0.05659362 0.35417396 0.30143216 0.3154492 0.10349042 0.5218147 -0.2061371 0.09608636 0.36086684 0.050916612 0.18125948 0.5425789 0.8349296 0.11889473 0.5088824 -0.31336722 0.07117237 0.022627285 -0.0785217 0.70468944 0.25128105 0.7013483 0.11620644 0.35119382 0.1886028 0.03893026 0.30675146 0.25044748 0.23276222 0.35163048 0.3801664 0.030029856 -0.03040676 0.31990632 0.008933848 0.24901596 0.11033935 0.17869468 0.23088029 0.4439847 0.39347535 0.06857864 0.041056093 0.2790445 0.32160124 -0.30116153 0.12804715 -0.18620329 0.37687147 0.39858857 0.21314451 0.14100519 0.22170846 0.11826648 -0.3655559 0.43454108 0.39981297 0.3563713 0.2795452 0.030424897 0.107211955 0.44199017 0.275812 0.16097468 0.6720437 0.6925028 0.49640954 0.36108577 0.4638413 0.611775 0.59227484 0.59373885 0.57735986 0.5154715 0.43670315 0.36093447 0.20589168 0.47006595 0.21718307 0.42515388 0.33868858 0.0986127 0.04902819 0.07754752 0.001165276 0.14514384 0.29863355 0.3843345 0.08023645 0.17767678 0.04557236 0.01955622 0.05351214 0.031993274 -0.06312933 0.07777442 0.5481904 0.3190571 0.16056742 0.13144131 0.17407215 0.041298945 0.2644593 0.44143718 0.58997375 0.5098229 0.34711605 -0.08822713 0.19239654 0.055796877 0.47837234 0.52671313 0.15346901 0.52731186 0.34734035 0.05430242 0.035222232 0.3084832 0.3852635 0.51071393 0.06658283 -0.42364752 0.27153605 -0.17593445 0.11299744 -0.25586274 0.27610502 -0.11673762 0.3641952 0.31974763 -0.073410645 0.029161109 0.00010507637 -0.04758581 -0.3342505 0.22696894 0.24715032 -0.012501909 0.106656365 0.06868357 -0.004346475 -0.38328186 0.04825261 -0.6189494 0.3057153 -0.0027899218 -0.016258724 0.23666221 -0.16514821 0.15482503 -0.35778886 0.25638905 0.004753659 -0.109717004 0.17011316 -0.03718202 0.079805665 -0.0006165769 -0.0030154975 -0.027845899 0.18044794 0.34558928 0.087311834 0.3163619 -0.11221008 0.016777625 0.11294135 0.27651656 0.5779374 0.13766782 0.16518962 0.06518287 0.050866798 -0.2147291 0.12982757 -0.25532427 -0.009940713 0.2885882 0.0002881859 0.054938357 -0.10924875 0.0021152764 -0.10963443 0.33765396 0.0044967905 -0.0062290803 -0.014182322 0.03590277 -0.01521083 0.006402731 -0.028326944 -0.052773103 -0.086270444 -0.42448035 -0.3652028 -0.8035848 0.01507991 -0.37965935 0.8147186 0.41725236 -0.095551535 -0.08691659 0.31884044 0.24986446 0.40579504 0.11591261 0.37355438 0.02806803 0.06858229 -0.1293923 0.23934895 0.24963598 0.52283084 0.2216133 0.38937744 0.31764 -0.12706736 -0.2570914 0.0782795 0.19194318 0.18624847 0.24625544 0.112514734 0.12920882 -0.11037808 -0.23057158 -0.28356305 0.044851273 0.025383715 0.00884733 0.15832187 -0.037800033 0.026172787 -0.27537292 -0.17546274 0.10659072 -0.030293861 -0.157405 -0.17219503 0.003142565 0.071353495 -0.06778068 -0.024038754 0.058756754 -0.051651455 -0.06827845 -0.047791183 -0.07662186 -0.7726259 -0.42099422 -0.42508814 -0.6788244 -0.37589797 -0.26444757 -0.36647022 -2.0776315 -0.4100987 -0.1650694 -0.19066797 -0.20304552 -0.28633067 0.22056329 0.20819376 0.02332682 0.03796889 -0.47141194 -0.10662194 -0.14221784 0.08988095 0.3413082 0.3689802 -0.07898125 -0.47426122 -0.5619804 -0.50426215 -0.08339114 0.052988645 0.307337 0.4239874 0.12358741 -0.710522 -0.7424277 -0.40955365 -0.042044755 0.12507391 0.23649609 0.47329193 0.37844265 -0.8631357 -0.70418155 -0.44487408 -0.10397645 -0.06348767 0.28390855 0.44592866 0.4635679 -0.07812933 -0.65726334 -0.23135623 -0.07855593 -0.067455456 0.06809654 0.28593805 0.2544337 -0.06944417 -0.15970655 -0.2756418 -0.19800033 -0.19941182 0.18844828 0.124693274 0.5112909 0.024186246 0.15002483 0.0675179 -0.13759965 0.083798 0.1413657 -0.1652138 -0.044661555 0.13321874 0.13345127 -0.21375829 0.18622787 -0.07960833 0.21099639 -0.21410191 0.43416032 -0.105279356 0.027682858 -0.0821079 -0.10090554 0.041003503 -0.099879034 0.18342084 -0.20152047 -0.25206822 -0.15848635 -0.11568786 0.014355168 -0.13790697 -0.25423858 0.15441884 -0.122135475 0.23847537 -0.1055889 -0.24393827 -0.19315927 -0.4184073 0.076416776 0.07460913 0.109633744 -0.50243825 -0.21831901 -0.05137078 -0.1458081 -0.29475975 -0.015952397 -0.9799146 0.4752682 -0.16408244 0.0030450923 0.046734106 -0.57792175 -0.38130787 -0.6338434 0.32026145 -0.049915705 0.43376637 -0.17124332 -0.11773409 -0.25358853 -0.2897989 -0.19578181 -0.56334424 0.5356269 -0.12763153 0.22353885 -0.32648027 0.13264564 -0.38761723 0.38507167 -0.48866248 0.12667657 0.20635627 -0.32743353 0.33642098 -0.5344912 0.3815861 -0.3040684 0.16527548 0.011227196 -0.5491027 -0.043732975 -0.27758622 0.15874147 -0.34963736 0.0016155185 0.114722356 0.38830963 -0.11819018 -0.41965857 -0.2777849 -0.496045 -0.2696727 -0.44646326 0.25738865 0.018247006 -0.4582519 0.03423736 -0.69098216 -0.17762968 -0.89871985 0.3069877 -0.39687383 0.40345255 -0.042273752 -0.31435838 0.040692996 -0.6688002 -0.04171429 -0.82723296 0.1512727 -0.33674073 -0.47206387 0.14314389 -0.118132584 -0.28130478 -0.49487415 -0.038139384 -0.98795485 0.7193799 0.28004128 -1.0247068 0.071283154 -0.8897499 0.015378535 -0.7338122 0.075967416 -0.4071892 0.12467373 0.04649048 -0.105585486 0.084103316 -0.08863682 -0.008829195 0.22409277 -0.22215351 0.12625341 -0.05687469 -0.1521301 0.2042281 -0.16242917 0.23908257 -0.0060996814 -0.12258201 -0.07651999 -0.259282 -0.16860661 0.21860062 0.26634088 0.10005471 0.44054395 0.027630366 -0.3474489 -0.26334387 -0.31666616 0.28531563 0.0344824 0.2349501 0.19787222 0.1893544 -0.3197948 -0.4696496 -0.34748313 -0.116293974 -0.15602008 -0.027510818 -0.019406106 -0.14074133 -0.20468506 -0.22853434 -0.21620022 -0.10200722 -0.4171045 -0.3316752 -0.14680322 -0.22491622 -0.20327094 -0.28449962 -0.028400473 -0.043010343 -0.04338353 -0.24957353 -0.1600633 -0.30241403 -0.026147984 -0.24937667 -0.0951281 -0.28835687 0.005596715 -0.13526826 -0.5434976 -0.31078973 -0.08203386 -0.16531895 -0.42857412 -0.3183608 -0.39945343 -0.20392975 -0.04956033 -0.4835775 0.02992266 -0.47745326 -0.05563534 -0.492893 -0.28886977 -0.2766123 -0.13801949 -0.40942693 -0.30075002 -0.3435459 -0.3772499 -0.25560942 -0.2866969 -0.2416283 -0.09875625 -0.29681876 -0.30305055 -0.3650594 -0.45067298 -0.5959493 -0.28349194 -0.42580625 -0.11288359 -0.48840606 -0.5413954 -0.16773883 -0.42092386 -0.69937205 -1.2356154 -0.37205967 -0.51461506 -0.4368095 -0.19861355 -0.51744455 -0.18395326 -0.5859275 -0.6204969 -1.2723513 -0.5172342 -0.6898187 -0.26432684 -0.17157663 -0.4979438 -0.64028174 -0.92288923 -0.58355737 -0.8948921 -0.5620783 -0.17074083 -0.3939489 -0.6425015 -1.2496407 -1.0803046 -1.6395617 -1.5381168 -1.3481158 -0.04722065 0.004964933 0.070240706 0.053543508 -0.066782355 -0.037852768 -0.05024326 -0.05961956 0.11246205 0.21926889 -0.3679327 0.80969983 -0.37491125 -0.03236115 0.13344291 -0.14927012 0.02713229 0.3453616 -0.60206276 0.8532612 -0.8726197 0.41925228 -0.021646932 -0.06743962 0.12124491 0.07732704 -0.28249022 0.5553742 -0.5180677 0.40349898 -0.03564564 -0.07663003 0.027658785 -0.48130834 -0.4097444 0.115701094 -0.30144706 0.14973015 0.0708884 -0.08327085 0.07524207 -1.062364 -0.1719944 -0.09349908 0.22752303 -0.24488385 0.4073351 0.25927347 0.1346406 -0.44949967 -0.3421374 -0.91484857 -0.8883179 0.12895969 -0.82302624 0.54382366 -0.036668055 -0.03500511 -0.060421795 0.08219361 0.008462101 0.028138772 -0.019793287 0.0015639737 0.2345335 -0.05319704 0.35219046 -0.3777625 0.03695252 -0.17530508 -0.15681675 -0.18799877 0.04361881 0.090555824 0.22262372 -0.031539932 0.081895344 0.0053796596 -0.1868489 -0.03244441 0.052330695 -0.03611888 0.0271905 -0.31210503 0.0551581 -0.077180944 0.10772019 -0.26823974 0.10357103 0.24661861 -0.20629178 -0.007410467 -0.12770577 0.033388697 -0.016465066 0.08541639 0.16479853 0.35957766 0.25186756 0.26146957 -0.12335631 0.017514382 -0.11335014 0.13269627 0.3405383 0.3542633 0.6803496 0.2546272 0.22299063 -0.07785572 0.055662286 -0.049541976 0.7645949 0.3391783 0.5242079 0.2568371 0.3814299 0.05618046 -0.013309541 -0.16288328 -0.0034299549 0.6423805 0.41299435 0.20386684 0.1479733 -0.06638682 -0.10964838 0.37348095 -0.343443 -0.47377616 -0.4660665 -0.65119535 -0.5121441 -0.96520007 -0.63974637 -0.4398345 -0.1693619 -0.16124283 -0.39372456 -0.520348 -0.28262097 -0.37771523 -0.356675 -0.29375896 -0.14918472 -0.3225268 -0.20617785 -0.26902246 -0.5876934 -0.20767517 -0.6708241 -0.3558083 -0.18798897 -0.10457836 -0.27089575 -0.040922705 -0.33163518 -0.30617154 -0.36290663 -0.40514007 -0.042217832 -0.26533532 -0.07101135 -0.17418036 0.0105461925 -0.2735508 -0.13418867 -0.4283658 -0.27839828 -0.0032435933 -0.0021061369 -0.003955868 -0.13585058 -0.1778784 -0.30499682 -0.35684472 -0.052096047 -0.23737825 -0.07067606 0.007916784 -0.4019533 -0.028459607 -0.3051141 0.059531264 -0.16790082 -0.08293675 0.011529759 0.038224336 -0.23702149 -0.13915765 -0.338193 -0.23935172 -0.26426104 -0.49164638 -0.38398832 -0.65882874 -0.5481358 -0.66338724 -0.79260737 -0.32983932 -0.10578107 -0.34221157 -0.3513091 -0.36929566 -0.38385257 -0.47167453 -0.48622248 -0.33901957 -0.24744248 -0.30666485 -0.29221743 -0.3104333 -0.45956266 -0.602374 -0.3756537 -0.4024193 -0.052206002 -0.31734705 -0.36089882 -0.3094767 -0.3692178 -0.3752166 -0.37550324 -0.32486892 -0.34607294 -0.24882998 -0.335857 -0.15745977 -0.26583773 -0.3595662 -0.20164777 -0.4294006 -0.085582264 -0.2625008 -0.09325341 -0.3930521 -0.2578194 -0.25393093 -0.30207077 -0.28385273 -0.3825157 -0.17153887 -0.29068318 0.079423755 -0.37639305 -0.27372804 -0.1914945 -0.19177236 -0.048569452 -0.15387027 -0.08095211 -0.0113431215 -0.057622455 -0.6018526 -0.2586504 -0.2780698 -0.3247572 -0.39467937 -0.3845435 -0.37356594 -0.42988834 -0.4278803 -0.5621479 -0.48510343 -0.28438464 -0.27995068 -0.324412 -0.26732245 -0.34552726 -0.25828457 -0.31495172 -0.33387703 -0.106087126 -0.15334246 -0.30799186 -0.27896222 -0.32694033 -0.28664052 -0.2998488 -0.3079829 -0.19248854 -0.07081941 -0.14120479 -0.11640651 -0.19632143 -0.17799474 -0.22221193 -0.3336698 -0.063303165 -0.28515756 -0.18024154 -0.120114595 -0.18241456 -0.20246312 -0.25839564 -0.470753 -0.14822176 -0.05403097 -0.31216955 -0.19632788 -0.22519274 -0.20513268 -0.42743546 -0.5658086 -0.065800466 -0.04853707 0.031576563 -0.30639184 -0.0556177 -0.19333838 -0.2013652 -0.46901855 -0.18787824 -0.051627904 -0.1009089 -0.18067195 -0.4015821 -0.059275147 -0.33622018 -0.6232734 -1.0689169 -1.0607973 -0.9760732 -0.9126818 -0.83081657 -0.8150649 -1.0879098 -1.3301907 -0.7794646 -0.8147557 -0.902723 -0.729758 -0.7512992 -0.7588528 -0.7250892 -0.82881373 -0.8196092 -0.71834826 -0.84053886 -0.707481 -0.67638266 -0.8101743 -0.7718916 -0.8325671 -0.5998369 -0.7301267 -0.68722606 -0.77138156 -0.81160796 -0.78350013 -0.8013643 -0.7922656 -0.527446 -0.68952155 -0.76419055 -0.62857014 -0.7044593 -0.73068565 -0.78789973 -0.89112586 -0.542917 -0.64387786 -0.7532742 -0.8025465 -0.6898371 -0.8468982 -0.76667225 -0.84738165 -0.6747842 -0.57288593 -0.60108745 -0.73768526 -0.88850856 -0.73989093 -0.85430825 -0.83491516 -0.598847 -0.53651625 -0.57834274 -0.61425996 -0.75501543 -0.94659907 -0.7128052 -1.0289644 0.0435462 0.047966868 -0.070639834 -0.02152057 0.006775491 0.036111087 -0.08335401 -0.016346432 -0.025320733 -0.1279532 -0.073113926 -0.265207 -0.52630943 -0.16883135 -0.3114038 -0.22369994 -0.06344687 -0.048818316 0.056041956 -0.2547941 -0.14811683 -0.4084822 -0.009152078 -0.09814813 0.030794252 0.0024578802 0.0416027 -0.14860065 -0.099258095 -0.087179326 -0.058407303 -0.09884262 0.07441584 0.2532997 0.035024002 0.106641136 -0.12786296 0.044381496 -0.041485794 -0.16779986 0.20844655 0.08667183 0.24420443 -0.03782447 -0.13609724 0.20083533 -0.11925864 -0.19150425 0.08004616 0.27226487 0.0681172 0.3301687 -0.4617461 -0.083299026 -0.14635727 -0.18475652 -0.01553946 0.0092723 -0.037994757 -0.051435344 0.063135326 0.04402131 0.037625156 0.00072309375 -0.51243263 -0.42000362 -0.17838411 -0.2579798 -0.03900832 0.016528942 -0.23988464 -0.17135575 -0.084412225 -0.22328621 -0.004227827 0.061619204 0.15568091 0.07949602 -0.1364336 -0.071795546 -0.17982091 -0.03364157 -0.08831506 -0.024187135 0.019058036 0.11081071 0.15858829 0.14661111 -0.036793932 -0.17184192 -0.0141991805 0.07819212 0.07036953 0.25087163 0.010607569 0.07073931 -0.16173838 -0.07309258 -0.17753041 0.13000016 0.38539615 0.3000442 0.42644802 0.30985516 -0.16611056 -0.26494098 -0.051357698 0.026678858 0.42178825 0.59560007 0.6918403 0.60125214 -0.45386636 -0.31754202 -0.30346635 -0.12026402 0.08568153 0.4775777 0.66039324 0.5514448 -0.43723175 -0.3177608 -0.35799605 -0.1193386 -0.117189944 1.0072962 0.4216296 0.2962956 0.027498 0.17817576 0.31398323 0.24726145 0.24969712 0.23656805 0.2987644 0.0068613887 0.06660878 0.029237127 0.23082994 0.12781785 0.30332804 0.21180688 0.36028156 0.14072189 0.015462426 0.17190011 0.08488214 0.29303148 0.20412152 0.1440117 0.2330517 0.383619 -0.04624648 0.076550975 0.0076876655 0.10157059 0.12800136 0.34892002 0.20929548 0.1569629 -0.111445785 -0.100222565 0.038896073 0.03137642 -0.22800958 0.3613847 0.15033093 0.14944531 -0.10141736 -0.017437123 0.2264942 -0.20722616 0.0018194971 -0.03663609 -0.2287303 0.06760158 -0.22171357 -0.05027928 -0.21851416 0.010127408 0.0115768025 -0.41648197 -0.275684 -0.011868441 -0.11142143 -0.24964534 -0.22688235 0.02457994 -0.26352692 -0.13336371 -0.16275546 0.1258079 0.25715855 0.009400573 0.25643322 0.14685151 0.29456434 0.053092763 0.05284857 0.06685063 -0.030455736 0.26561552 0.15530793 0.18311697 0.085746095 0.15009445 0.03440135 0.13205 0.25702584 0.058980092 0.1696598 0.10475811 0.19324277 0.20254643 0.23665132 0.022471774 -0.45992997 0.21413429 0.053061195 0.22691037 -0.013744571 0.17280868 -0.0313595 0.17754841 0.045091294 -0.35362458 0.21706192 -0.025417356 0.021846637 0.05709185 0.11374031 0.0613616 -0.09393276 0.042434532 -0.2593186 0.15787059 -0.11084924 0.09228131 -0.03784441 -0.07297207 0.24978453 -0.12592785 0.007437206 -0.122203864 0.010023836 -0.13601197 -0.30383843 -0.025842916 -0.026195878 -0.0579616 -0.18933585 0.047147885 -0.2403652 -0.14564252 -0.19270156 0.2044971 0.08576216 -0.0738282 -0.02636961 0.09353608 0.07941545 0.17799059 0.33738822 0.27162656 0.16157807 0.1265954 0.20789523 0.21468739 0.2958797 0.2113038 0.47284615 0.193949 0.12617859 -0.044016365 0.033242334 0.19019301 0.23980425 0.35777774 0.2922221 0.2531555 0.08751743 -0.05343759 0.11184356 0.060388986 0.16415505 0.24551867 0.33384663 0.34137532 0.09603834 -0.051211394 0.0069006025 0.043595016 0.006126134 0.2546308 0.21671946 0.20649825 0.09044789 -0.02311922 0.1753449 0.07481803 0.03853016 0.18961775 0.31659478 0.2759984 0.021743773 -0.019594166 0.1515447 0.22052209 0.16414852 0.30929232 0.30949926 0.31247777 -0.10118386 -0.13845643 -0.11285406 -0.046885993 -0.15409328 0.46522257 -0.00251415 0.24627909 0.06765625 0.0741193 0.05126238 0.13878493 0.17886323 0.15178134 0.19260302 0.47447088 0.028860247 0.13358662 0.21132582 0.23511982 0.3125504 0.31677967 0.3651306 0.17544854 0.11052728 0.07677005 0.22726692 0.29355502 0.41436818 0.22793297 0.35303828 0.21356255 -0.16800009 0.21423613 0.21348834 0.14060318 0.24297689 0.30838457 0.3415717 0.32815716 0.0031052367 -0.108902894 0.1862844 0.21420987 0.31683457 0.38194016 0.4810267 0.4190475 -0.0838474 -0.024526553 0.006559955 0.2665404 0.5099508 0.5379359 0.104187936 0.34251034 -0.06332212 -0.15226912 0.19909017 0.39513907 0.41378057 0.4763835 0.37353247 0.34045058 -0.26968962 -0.013207179 0.25317994 0.324783 0.43014935 0.38052037 0.4691465 0.32295167 -0.030648552 -0.06800228 0.08046529 -0.03629608 0.07995731 0.009855904 -0.047956962 0.067075595 0.21346067 0.2268051 0.26432458 0.22676305 0.19136634 0.11309675 0.15018164 0.09778678 0.1548368 0.32215935 0.14365396 0.18394339 0.068369396 0.12308739 0.19260302 0.105535865 0.3023297 0.2078578 0.23675479 0.13047925 0.05961768 0.1880934 0.03651921 0.08402879 0.28636402 0.3665322 0.02917137 0.1365847 0.13547665 0.111861385 0.13201737 0.20044653 0.14136076 0.04610362 0.1561324 -0.007537373 -0.028277751 0.3403259 -0.15766084 0.28328 0.28991967 0.2417154 -0.1192662 -0.0065980814 -0.21543016 -2.0440876 0.01107077 0.20167452 -0.016767077 -0.0055500194 -0.070464745 0.061646536 -0.08269711 0.0037602186 0.08120462 -0.012173198 0.2602041 0.14564632 0.06374328 0.14829794 0.080866136 0.23474611 0.034584373 0.10852633 0.26643366 0.42776945 0.3976039 0.22299682 0.17178065 0.10470994 0.32474515 0.2122426 0.2159441 0.33867356 0.28564972 0.122356616 0.19513814 0.24685225 0.31292242 0.22286032 0.023956252 0.23851939 0.11652874 0.17817783 0.09345759 0.0997745 0.069837525 -0.017944986 0.260113 0.2986997 0.17959665 0.1274073 0.061176732 0.16553277 0.16170885 -0.078098714 0.22198065 0.40486988 0.38854986 0.2045072 -0.06480662 0.17855172 0.046638586 0.10985628 0.38258964 0.52756417 0.34206077 0.33050683 -0.026983462 0.15842372 -0.17473653 -0.03348045 0.20352861 0.50768477 0.46288845 0.15688883 -0.0050355736 0.22783256 -0.38750076 -0.4943358 0.2606823 0.12610291 -0.024318337 -0.037330456 0.10087982 -0.1855059 -0.059157286 0.14422727 -0.19387437 -0.103360526 -0.17748602 -0.11323945 -1.0366435 -0.16116533 -0.66533 0.07621518 -0.1694962 -0.070090905 -0.17463492 -0.31940523 -0.26774308 -0.32854715 -0.37062892 -0.5071418 -0.2090182 -0.2731015 -0.18726702 -0.23891194 -0.21950407 -0.56711197 -0.09518208 -0.29796815 -0.17338687 -0.25341356 -0.007478711 -0.45282942 0.096845254 -0.36327067 0.046204414 -0.18308242 -0.2358963 -0.06422074 -0.3725401 -0.21348286 0.11556009 -0.0056638857 -0.36117956 -0.1902156 -0.38239413 -0.26843104 0.03840509 -0.05883931 -0.31189695 -0.2148734 0.116111636 -0.046110395 -0.11234193 -0.36752236 -0.13889404 -0.008581792 -0.09576617 -0.033238303 0.027125962 -0.38372546 -0.3353597 0.46041918 -0.5333717 0.5432981 -0.39835012 0.7430384 -0.59527975 0.5877505 0.44387192 -0.7794813 0.6294201 -0.7069955 0.41121882 -1.0291319 0.4053573 -0.97614706 -0.8664528 0.60667837 -0.5626327 0.5502637 -1.3725085 0.20456736 -0.96542954 0.53841865 0.3873896 -0.56893873 0.38829768 -0.53065234 0.22019877 -1.263203 0.44154862 -0.9183314 -0.44925 0.32341227 -0.64571786 0.29641095 -0.60624284 0.52370405 -0.87957877 0.48567694 -0.09203841 -0.61841756 0.2209883 -0.98141444 0.5985234 -0.5590292 0.39165625 -0.93721795 -0.51682955 -0.18302982 -0.7493406 0.30258822 -0.72606987 0.66472095 -0.57002807 0.014424425 -0.12740022 -0.9281361 0.4817071 -0.6849547 0.19817373 -0.6976681 0.6290959 -0.6871662 -0.2859594 -0.12107403 0.050991837 0.020812465 0.205564 -0.23822741 0.24623494 0.2823624 0.077505104 0.04019062 -0.10136224 -0.06809135 0.054128405 -0.018209597 -0.14804073 0.00208055 0.10344455 -0.105662234 -0.10645976 -0.2516255 0.10511459 -0.18225381 0.104999416 -0.25316304 -0.055426955 0.08186071 -0.04298409 0.010191485 -0.23102194 -0.0098479865 -0.28160024 0.23115332 0.0031186652 -0.05206577 -0.15847418 -0.23637372 0.36304018 0.0046937945 -0.013312304 -0.15591574 -0.07240254 0.04435446 -0.18313718 0.004810321 0.21444698 0.19775487 -0.068640925 0.110353336 0.24703467 0.27882853 -0.12733933 -0.037499435 0.27753702 -0.18401778 -0.29457143 -0.21730159 0.22260806 0.30403745 -0.2391058 -0.033404022 0.3360266 0.17768972 -0.28711906 -0.011750931 0.09922535 -0.28781968 -0.4203394 -0.1844202 -0.30259126 -0.00017369573 -0.35351902 0.66268766 -0.14649457 -0.4242834 -0.17855082 -0.42486465 0.16327004 -0.1789925 -0.042847116 -0.06523147 -0.4396109 -0.11828289 -0.57343984 -0.025817575 -0.4297896 0.1056062 -0.40050632 0.23365517 -0.122427516 -0.4062656 -0.21355079 -0.47954577 -0.039757438 -0.34740135 -0.048764337 -0.18282297 -0.2127451 -0.10083245 -0.47532755 0.01547077 -0.07350937 0.16866796 -0.2953079 0.072566584 -0.10914553 -0.27689213 -0.03653789 -0.33506498 0.039462283 0.029528514 0.13201074 -0.23364606 -0.18904857 -0.04980891 -0.09775617 0.061351568 -0.1595715 -0.14927584 -0.343201 -0.17847447 0.15215835 0.015274161 0.1378533 -0.05810391 0.08576609 -0.07420782 -0.38111892 -0.025055684 0.012646854 0.0663273 -0.08372359 -0.016499355 0.05682993 0.0016114712 -0.08207618 0.012865171 0.023484612 -0.30306458 0.37457475 -0.49133953 0.51474166 -0.390283 -0.14437959 0.014011579 0.14483492 0.192397 -0.055648763 -0.043918844 0.5281624 -0.23537993 -0.1356937 0.13512567 0.20885508 0.11761524 -0.18252097 -0.13697164 0.30414578 -0.55747664 -0.029478347 0.051942892 0.27270794 0.47613358 -0.2584376 -0.15311821 -0.036339384 -0.17563972 -0.6532667 0.067755036 0.25249705 0.5929175 -0.23593822 -0.5567033 0.4547038 -0.5590382 -0.47490627 0.0016389262 0.37066796 0.51071256 0.24989209 -0.3781773 0.7465096 -0.11904498 -0.49793166 -0.040787544 -0.03557283 -0.06602883 -0.061365128 0.020324685 0.05732821 -0.052898794 0.07349306 -0.041891072 0.21190527 0.7109953 0.37875852 0.3603858 0.18971086 0.32207862 0.67567503 0.006763741 0.0953696 0.24977757 0.62628764 0.23843674 0.6023138 0.230414 0.64381176 0.6832573 0.4434295 0.36689845 0.42631128 0.47445783 0.4746856 0.30199024 0.38146406 0.5552917 0.41955832 0.545027 0.42588294 0.43610892 0.48877618 0.23242201 0.4770051 0.6620032 0.5355081 0.3550542 0.33764622 0.18268272 0.40426832 0.2677126 0.38639998 0.4637565 0.02411524 0.18376519 0.03371445 0.059637006 0.08288502 0.2729261 0.047857165 0.21466155 -0.24267343 -0.6826974 0.040525258 -0.11563984 0.14686337 -0.017816208 0.07584425 -0.4457772 -0.5587361 -0.58134305 -0.49422607 0.04735581 -0.31520766 -0.11624176 -0.3475092 -0.34661967 -0.06985795 0.04938405 0.06723587 0.14641191 0.029101184 0.25351745 0.3530066 0.550674 0.19099508 0.11097703 -0.013147845 0.23040913 0.39447293 0.28567037 0.45654973 0.2886656 0.14337729 0.021982346 0.20011444 0.2018323 0.14706708 0.22401157 0.3445277 0.27119282 -0.13662085 0.17257358 -0.1845938 0.38239932 -0.01057827 0.5547625 0.25244585 0.4256809 -0.018734777 0.17019649 -0.13247278 0.17214084 0.5098472 0.1100859 -0.042102817 0.62918836 0.43132037 0.31188008 0.31478253 -0.030283201 0.41780657 -0.06011045 0.06522812 -0.2019198 0.1627834 0.13819823 0.56003016 0.10793254 0.026276575 -0.12625638 0.032307737 0.49456638 0.66056955 0.4318333 0.4215538 0.06878135 0.19274563 -0.017678343 0.14009753 -0.00016464459 -0.048231456 0.24684986 0.1396577 0.027635576 0.2831944 -0.017618513 0.35199356 0.055799343 0.20459892 0.17701085 0.19600968 0.15912683 0.12592444 0.13066688 -0.056397777 0.6278169 0.40742293 -0.011011482 0.06718771 0.03695925 0.27274996 0.19806056 0.4634409 -0.17858033 -0.10296448 0.32923692 -0.24167578 0.36389908 -0.07543689 0.27828062 -0.15685119 0.9403603 0.35090977 0.15596919 0.070463985 -0.42602098 0.4555086 -0.04025151 0.38933238 0.13721405 0.26956323 0.28550702 0.19584712 0.13118222 -0.001986116 0.43664685 -0.010453363 0.5498529 0.14051625 0.13398497 0.39679363 -0.028314533 0.47155052 0.10313649 0.4782647 0.344125 0.15516417 0.4965436 0.20258713 0.430185 0.3372311 0.17060234 -0.07556851 0.4381992 -0.08650211 -0.06377979 0.11071734 0.008761907 -0.04425322 0.20150669 0.51991194 0.14591464 -0.101670854 -0.042494558 0.15667912 0.046359986 0.017349847 0.28023157 0.41258815 0.19318926 -0.1477632 -0.13577788 0.18752249 0.0107206 0.15601438 0.21829905 0.45583943 0.12991863 -0.17988974 -0.071473986 0.005949553 0.15643403 -5.6911464e-05 0.302484 0.34001663 0.2168974 -0.09098667 -0.04901975 0.10875917 -0.14019538 0.2355335 0.19043873 0.3453333 0.25577724 -0.027335683 0.022421343 0.026235897 -0.20622912 0.004644634 -0.27002648 0.07628412 0.0818242 -0.25747514 -0.33724344 -0.12923908 -0.3880602 -0.18416941 -0.34290504 -0.373707 -0.09414789 -0.31905848 -0.29635158 0.12347754 -0.09598182 -0.0708127 -0.064741604 0.2473789 -0.16088977 -0.11957054 0.15158074 0.4237213 0.04085351 0.2838169 0.38127437 0.57709575 0.2808086 0.03926222 0.31459755 0.20191148 0.40484443 0.14851555 0.3942446 0.46187705 0.37121487 0.430602 0.044098496 0.46553516 0.0627526 0.5281266 0.23129278 0.5827299 0.15782136 0.17195444 0.3966437 0.12683953 0.31551817 0.12521671 0.48963007 0.12035501 0.54247516 0.39104614 0.3375737 0.3405664 0.035365406 0.2719086 -0.0034630052 0.5486876 0.22231519 0.048860792 0.22521305 0.4074554 0.2003939 -0.0041711587 0.2628369 -0.17825256 0.5302716 0.18363126 0.15218517 0.41933042 -0.075600564 0.17866129 -0.072334245 0.22662516 0.19406201 -0.008561178 -0.080334164 -0.29747435 -0.34782928 -0.38084117 -0.0516009 -0.26009274 0.06364806 0.03643821 0.007713929 -0.06741753 -0.0010883436 -0.0015156865 0.016097493 -0.008448094 -0.07831374 -0.005079061 0.031589493 -0.046629693 -0.04920485 0.04241276 -0.113643505 -0.005468341 -0.07022627 -0.011441654 -0.05103523 -0.0527847 0.1200076 0.09047315 0.15269339 -0.20984362 0.036575146 -0.06092957 -0.22604135 -0.21509576 0.13135456 0.18818897 0.098302 0.20049147 -0.051811926 -0.15618718 -0.3675239 -0.24764109 0.24185689 0.22863846 0.48363757 -0.13547777 0.011387863 -0.3984919 -0.2813554 0.035996865 0.077777445 0.45279646 0.22033848 -0.12489198 0.22077538 0.33319038 1.0093964 0.4728083 0.38246685 -0.61211485 0.38997272 0.11686575 0.48299447 -0.029978994 -0.03504696 0.044701874 -0.060839362 -0.012181506 0.0050202906 0.028849326 0.06955899 -0.12600353 -0.05056053 0.20237905 -0.18007652 0.21156117 -0.31103414 0.08051295 0.098855324 -0.1901483 -0.067635216 -0.28829446 0.14354606 0.08389413 0.08706408 -0.35577884 0.105308354 -0.03529404 -0.29714215 -0.10417784 -0.27796695 0.41747695 -0.11250458 0.17893367 -0.20911776 -0.5780374 0.01948664 -0.36179754 -0.042962827 -0.1386389 0.2551211 -0.45219305 0.37538823 -0.032690477 -0.15822808 0.023576397 -0.52651376 0.029872885 -0.4430667 -0.06970053 -0.32522315 -0.012970339 0.06067732 -0.17083073 -0.12054353 -0.17108515 -0.36664087 -0.41565537 -0.21004996 0.123812534 0.008159847 -0.0934974 -0.32897747 -0.03575511 -0.36925867 -0.54155767 -0.51025826 0.089583874 0.09946527 -0.1466781 -0.16479015 -0.19191207 -0.85062176 -0.46466422 0.09767144 0.13403095 0.007530091 -0.28337815 0.18691604 -0.13348813 -0.24483426 0.18347088 0.0525027 -0.37608948 0.11004267 -0.34549117 0.53532606 -0.3518591 0.24180761 -0.060567994 0.24762814 0.34196535 -0.02038878 0.03014409 -0.17322955 0.19398819 0.3613584 0.018825006 -0.38185686 0.097294286 -0.117714636 0.1309594 0.3583676 -0.041636948 0.23984765 0.2395939 -0.14101662 0.37976602 0.058064785 0.5430414 -0.29109874 0.57552963 0.015838634 0.21730886 0.070491 -0.045424335 0.37147224 -0.1403655 0.5126555 -0.14930077 0.26482844 0.22059257 0.11973342 -0.35644326 -0.17487845 0.20334795 0.19217122 0.11170758 0.28244415 0.10037367 -0.122266546 0.26680046 -0.19849436 0.0022678988 -0.13056612 0.1746544 0.20695336 0.024260832 -0.30548662 -0.010754583 -0.077882215 -0.20743886 -0.14561777 -0.14203179 0.10149346 -0.15706225 0.3135341 0.31631935 0.07169921 0.061584234 -0.26124093 0.28256285 -0.1634252 0.18765126 -0.19734368 -0.36762896 0.05501547 -0.013561533 0.25809795 -0.30757165 0.30491355 0.14878957 0.20413879 0.061482064 -0.3861611 0.51189333 0.07781693 0.12676765 0.039150123 0.38020837 -0.30644128 -0.15910722 0.31902865 0.032782603 0.22342731 0.12987813 0.29949012 -0.23548035 0.06954209 0.21350028 0.18803862 0.23654403 0.2170603 0.1682429 0.3315331 0.23544553 -0.10935229 -0.20047267 0.09272699 -0.056362633 0.20646743 0.14723621 0.21290947 0.32324588 -1.1119304 0.16668488 -0.26625535 0.18660645 -0.07467284 0.020291103 -0.10038797 -0.37723652 0.53817415 -0.06906816 -0.012083031 0.17531583 0.018244626 0.092971586 0.11433072 0.25342533 0.07491665 -0.14632115 0.009819546 0.029808097 0.2037396 0.07458018 0.3650574 -0.13924439 -0.124426834 -0.065092236 -0.060211785 0.12256779 -0.06175255 0.3335951 0.04880607 0.20039564 -0.09708463 -0.02843877 0.269531 0.046393525 0.31122097 -0.05649613 0.21553996 0.106909096 -0.014743026 0.13855673 -0.11544703 0.3046 -0.15947104 0.14633848 0.051671345 -0.054387957 0.12154385 0.08554091 0.13771658 -0.20993756 0.17504892 -0.109483294 0.10175583 -0.1816449 0.02096219 0.1753032 0.10651146 0.07959207 -0.13111107 0.043516386 -0.2899445 -0.5160174 0.010210713 0.33595255 0.35812208 0.1040656 -0.0345583 -0.03489021 -0.06280678 -0.24350004 0.24661191 -0.22950682 -0.11400624 0.02519349 0.10786225 0.14802358 0.26515776 -0.19673705 0.07003115 -0.039487757 0.118570924 0.3031141 0.07462409 0.32060492 0.31974155 0.22046092 -0.253756 -0.0354895 0.12467393 0.21161191 0.24552588 0.23128425 0.2964528 -0.06448943 -0.00503332 0.16919394 0.2743564 0.4236318 0.2588758 0.18481342 0.27095923 -0.0064486866 -0.06989559 0.25906283 0.31306592 0.45838416 0.081242554 0.1592509 0.2545017 0.060404547 0.39743584 0.33401963 0.20783687 0.25493953 0.2610104 -0.08372557 0.26810232 0.008461141 -0.11123424 0.28712797 0.21436146 0.12469021 -0.08537167 0.14642005 -0.5205225 -0.1631533 0.29701835 0.48856825 -0.045415938 -0.122278094 -0.11413693 -0.23722124 -0.29082334 -0.44017306 0.5544762 -0.029229239 0.040495947 0.014093012 -0.03312691 0.051421314 -0.023734752 0.07956676 0.067513436 0.1040009 -0.11834987 -0.48170245 -0.35465068 0.14165165 -0.15186617 -0.09040591 0.108574495 0.4419069 0.08004162 -0.16188078 -0.39497754 -0.13263406 -0.2993289 0.34398174 0.20348626 0.23654097 0.09583987 0.028860485 -0.31203306 0.10364927 0.077912755 -0.048202194 0.22361574 -0.03735379 -0.088766575 0.053317815 -0.07975204 -0.2505612 0.027311886 0.17971347 -0.032954026 -0.3242753 -0.07659484 -0.0012539078 0.31658718 0.121451214 -0.05903308 0.37154076 -0.28940305 -0.24810807 -0.15317543 0.09334194 0.12539728 0.65448445 0.61328286 -0.30752277 -0.26325345 -0.049192496 -0.0005134791 0.016609251 0.013288878 -0.028013729 0.06728649 0.082022145 -0.01676365 0.4322239 -0.014691372 -0.0602513 -0.6090222 -0.13575439 0.20038883 0.46734825 -1.059695 -0.2359576 0.077323765 -0.4117014 -0.31122795 -0.58196557 0.20480849 0.47492597 0.23466463 -0.17225875 -0.20395343 -0.1356086 -0.29694143 -0.16127303 -0.06416623 0.4448141 0.14734614 -0.44400826 -0.034538794 -0.4468354 -0.09734239 -0.44257566 0.056242883 0.18553273 -0.050065644 -0.5988603 -0.7296559 0.039152242 -0.6626654 -0.14246139 -0.11990647 0.077446915 -0.3488314 -0.9475478 -0.005266913 -0.20592177 0.24006698 -0.10323085 0.4192458 0.23776059 0.33825645 -0.5523213 -0.32034615 0.14675772 -0.085387595 0.6902966 0.38021237 0.7894606 -0.19138576 -1.3230073 -0.42553148 -0.5197856 -0.10269531 0.19006655 0.65646964 0.14715278 -0.14707908 -0.28422487 -0.08079583 0.033203334 -0.020746209 -0.10872958 -0.2792395 -0.2332995 -0.063015684 0.11633196 -0.11155509 -0.17423244 -0.25646466 -0.16187724 -0.20540251 0.058248427 -0.2917558 -0.2304158 -0.16420099 -0.31970942 0.057418928 -0.532247 -0.17065373 -0.11570066 0.06615699 -0.11535456 -0.23942709 -0.23643166 -0.3469939 -0.24381489 -0.020737465 -0.35251758 -0.07100263 -0.294873 -0.37638304 -0.11609302 -0.45477694 -0.45984584 -0.3821642 -0.047547624 -0.42734355 -0.22767237 -0.3405401 -0.024409715 -0.44333294 -0.5569649 -0.22999969 0.23184413 0.31693938 -0.4840497 0.043043997 -0.6535875 -0.64580387 -0.03379718 0.536593 -0.03943308 -0.4015455 -0.69850254 -0.33581492 -0.24135932 0.056433465 -0.87134415 0.52942306 -0.5960131 0.41427442 -0.742784 0.675303 -0.25626272 0.18855944 -0.23387478 -0.0130809955 -0.10888199 -0.042447835 0.47660902 -0.63332117 0.46327227 -0.38682458 0.025072975 -0.4456508 0.11388321 -0.11599667 -0.5049828 0.7285119 -1.1760738 0.35803664 -0.5998596 0.28943896 -0.32009292 0.39269805 0.57279223 -0.9581017 0.6234845 -1.090092 0.51581687 -0.45409507 0.46957615 -0.13249019 -0.41779518 0.20182693 -0.7105726 0.4788941 -1.0131214 0.8637552 -0.45203257 0.49360487 0.7078867 -0.60748154 0.0024311333 -0.84392107 0.9371281 -1.0766428 0.8429011 -0.6715701 -0.4608782 0.48451328 -0.6614005 0.64022434 -0.6032905 0.9873538 -0.6037127 0.59168065 0.18248747 -0.47266263 0.45872602 -0.8491499 0.24548922 -0.05863773 0.6132516 -0.8366944 -0.07733165 -0.09520502 0.0025390622 -0.025226865 -0.1534114 0.15958165 0.3513577 -0.2568272 -0.2021126 -0.103741094 -0.058065664 -0.037994195 0.14586134 -0.11114022 0.18623792 -0.19138171 -0.32645932 -0.12866813 -0.17601217 -0.04920844 -0.048306987 0.021046696 0.14042966 0.02310963 -0.37752643 -0.39730993 -0.08405938 -0.12576644 -0.25253782 -0.5447171 0.01358484 -0.47097608 -0.4352835 -0.24956591 0.00025866926 -0.10930324 -0.0077046 -0.2976823 -0.19287384 -0.1486839 -0.2813379 0.022352776 0.035615258 0.110761255 -0.14137639 -0.04637024 -0.2113277 -0.11195598 -0.14102852 0.04038059 0.19866829 0.2152678 0.30774337 -0.3231211 0.61705613 -0.22776282 -0.08927746 -0.070387036 0.12186337 -0.0007086735 0.15835623 0.31008756 -0.12002894 -0.36051613 -0.3418444 0.14776215 -0.108682804 -0.10179267 -0.22563307 -0.107259445 -0.24246001 -0.31537634 0.21801174 -0.27545738 0.045756426 -0.23250918 -0.07443305 -0.16890241 0.0047631394 -0.42751133 -0.21120478 0.26979002 -0.43442234 0.05855926 -0.35097757 -0.042062104 -0.0030784602 0.05013167 -0.16114365 -0.38472632 0.2684961 -0.47332 0.07269893 -0.3879104 0.082395494 -0.5228083 -0.4235183 0.014056775 -0.587615 0.08528644 -0.6484216 0.06639438 -0.28834903 -0.016386002 0.024066987 -0.16239178 0.011708607 -0.37308455 -0.30209345 -0.38394636 -0.11502615 -1.0309122 -0.3573575 -0.010504511 -0.27221566 -0.07254981 -0.17500621 -0.3590442 -0.40752587 0.18402342 0.066375375 -0.4740331 -0.025390707 -0.50937206 -0.002490208 -0.53816426 -0.5270666 -0.98251045 -0.022691377 0.080189094 -0.022859648 0.056943357 0.072846204 0.077778846 -0.040100113 -0.035097517 -0.26410332 -0.110535696 0.1193148 -0.08910208 -0.32033262 0.14391994 0.09149514 -0.15766254 -0.13209334 -0.30789885 0.15137495 -0.32660487 0.2511524 0.033828855 0.3311969 -0.34051958 -0.38758865 -0.2502069 0.18607894 -0.5271665 0.15097837 0.032314386 0.13886385 -0.26885614 -0.8313397 -0.0015589226 -0.10519504 0.087707706 -0.26872447 0.026437176 0.30024904 -0.51843184 -0.8208117 -0.21550114 -0.038237736 0.08012346 0.35237575 -0.1950397 0.7566389 -0.88937193 -0.5123882 -0.19384356 -0.29894453 0.0007969047 0.24640629 0.8287397 -0.23991965 -1.2779768 -0.052219052 0.022621185 0.05449769 -0.06507114 -0.018262759 0.01801332 -0.031111129 -0.028241564 0.004073589 0.028111748 -0.012340054 0.35702318 0.05136331 0.31399888 0.020939443 0.13233201 -0.28659406 -0.05175567 0.21961847 0.29728732 0.19847673 0.03771307 0.011174348 -0.039509103 -0.39844623 -0.1512625 -0.14274924 0.43269664 0.2828424 0.35726076 0.0817767 0.11602882 -0.558376 -0.24859571 0.28373396 0.028340964 0.608198 0.12538072 0.16652417 0.07999832 -0.029044991 0.22856773 -0.21482423 0.3874364 -0.22693537 0.22912268 -0.35863888 0.42869326 0.32396004 0.14876932 0.3778093 -0.17999789 -0.1554274 -0.692186 0.4432041 -0.51643723 -0.111290276 0.25428525 0.004729321 0.05764364 -0.3424979 -0.2661866 -0.036565453 -0.84384525 -0.43808347 -0.4106449 -0.15564704 -0.11443126 -0.3337176 -0.829941 -0.35683975 -1.2762614 -0.34349257 -0.016871054 -0.31417793 0.088834696 -0.42762682 0.61476684 -0.6424249 -0.15981206 -0.24615769 -0.16136798 -0.39605615 -0.39594716 -1.738105 0.26117027 -0.44139594 -0.24500144 -0.40545514 -0.8412481 -0.52719164 -0.28358603 -0.10193663 -1.2884463 0.24354455 -1.2800609 -0.47885785 -0.52053857 -0.47978827 -0.9436872 0.0004385548 -0.651998 0.33526725 -0.32313448 -0.22570471 -0.25396073 -0.38124782 -0.14117062 -0.27464193 0.07079197 -0.32425112 0.32042542 -0.16685557 -0.19382963 -0.20831066 -0.25755233 -0.22512136 0.14813638 -0.043020416 0.21525885 -0.21106797 0.00015302602 -0.15904106 -0.05818309 0.16703169 0.017309293 0.3272238 0.047059532 0.056038033 0.23530164 -0.21052551 -0.0153961675 0.24865295 -0.027786147 0.50274414 0.41741142 0.21525094 0.05907639 0.48606867 0.06653705 0.41314712 0.09116313 0.4681915 0.018443657 -0.02341929 0.16270423 -0.23959069 0.1611339 -0.26077354 0.18971784 0.15125848 -0.74354094 -0.07356333 -0.056572765 -0.08811179 -0.33125907 -0.028888905 -0.54425186 0.0805028 -0.302411 -0.24671233 -0.026073962 -0.22018813 -0.13540664 -0.04924725 0.27171063 -0.27250433 0.12224681 0.09751386 -0.29767403 -0.102220304 -0.18911459 0.17474082 -0.40868863 -0.08913678 -0.1837426 -0.2605558 -0.064954504 0.12699698 0.18231913 -0.325585 -0.024666112 -0.4596057 -0.0014714666 -0.15484627 0.07057443 0.23246145 -0.08917657 0.22606947 -0.06544895 0.03699272 -0.54608166 0.057646923 0.25881216 -0.075449646 0.103544995 -0.032664895 0.05296165 0.17670272 0.43395135 -0.6354039 -0.92736584 -1.0144851 -1.0526552 -0.80334806 -0.8187536 -0.26910448 -0.83949846 -0.18520084 -0.2500406 -0.2306816 -0.276692 -0.1872148 -0.47791964 -0.37485522 -0.32629395 -0.08167207 -0.08348825 -0.008293077 0.084210984 0.14668995 0.044280604 -0.123951115 -0.23777522 0.10822411 0.040044427 0.082581945 0.15874076 0.12411824 -0.05621837 0.1410525 -0.19458017 0.02056356 0.13529594 0.11953857 0.095371984 0.06595714 0.07500045 0.10677614 -0.042394754 0.07116936 -0.06775177 -0.031626243 0.026168285 0.018556595 -0.0022067204 0.09641779 -0.08014774 0.03456578 -0.048295178 -0.011828133 0.10754486 -0.01866906 0.07092038 0.31683373 -0.12911446 0.042332977 -0.0818225 -0.024885634 0.06436732 0.05876312 0.05770674 0.19118212 0.12924959 -0.8690573 -1.4013875 -1.2630001 -0.9773966 -1.0313951 -1.2892241 -1.0518404 -0.9337909 -0.61473376 -0.79576546 -0.89722043 -0.6126194 -0.46226823 -0.992098 -0.24958192 -0.6335085 -0.646974 -0.7537397 -1.188527 -0.7984685 -1.2661204 -0.20365012 -0.2573848 -0.40170893 -0.50678277 -0.48826054 -0.47994393 -0.5695412 -0.48908687 -0.13144238 -0.16714977 -0.3617651 -0.5714526 -0.28852913 -0.33458677 -0.26261538 -0.2048566 -0.25462452 -0.23680106 -0.13035642 -0.32404712 -0.41945702 -0.1502483 -0.0852396 -0.21652152 -0.2058844 -0.19436733 -0.15464506 -0.24400987 -0.22378802 -0.0759045 -0.04195484 -0.1575402 -0.10700626 0.075356804 -0.6428186 -0.13318267 0.067066915 0.06848578 -0.09430911 -0.018441767 0.16320021 0.31345877 0.27753985 -0.07316371 0.05563028 -0.011432864 -0.07776179 0.083750725 0.069696665 -0.080889076 0.037340283 0.096296854 0.36323392 0.50883067 0.58107764 0.76706374 -0.68131584 0.5936764 -1.7287583 0.17865969 0.32658845 0.6158223 0.5727422 0.60495526 -0.6650773 0.40023664 -0.5988571 0.09439984 0.30635053 -0.084940836 0.41750273 0.19096553 -0.18196169 0.36611813 -0.34814262 0.07243167 0.19384408 -0.032183032 0.23001935 0.22575271 0.017805021 0.3567249 -0.14651635 -0.043467242 0.12749213 0.12416584 0.3183248 0.16821878 0.23602504 0.18754847 0.008849993 0.010688542 0.038939133 0.09080119 0.1739486 0.47633803 0.15051815 0.1467837 -0.0037482006 -0.00016578287 -0.08386107 0.07906686 0.03852012 0.082066104 0.022665523 -0.03331518 -0.05064882 -0.0012962726 -0.3292057 -0.40790677 -0.42479137 -0.7512352 -0.64692086 -0.32955936 -0.79015166 -0.22368138 -0.46802306 -0.5775689 -0.58563036 -0.49030912 -0.20809723 -0.017152455 -0.30458173 -0.0052116113 0.0061718742 -0.07704301 -0.16852014 -0.119139604 -0.14917132 0.360025 -0.0014183186 0.25225043 0.1759194 0.09776691 0.3234574 0.23523441 0.43634403 0.20887464 0.33537373 0.35693273 0.10303707 0.105858825 0.16698027 0.20652257 0.11938113 0.2679457 0.18195815 0.15426406 -0.05763545 0.15133229 0.13247778 0.02010963 0.12549654 -0.11524065 0.076272294 -0.108337544 -0.032734614 -0.17623588 -0.149915 -0.071666874 -0.21366897 -0.11680952 -0.25627577 -0.19955708 -0.08558744 -0.03823279 0.020780208 -0.043974813 -0.1872076 -0.10053255 -0.0027530012 0.5116741 0.36401704 0.5779715 0.36076352 0.3919903 0.4819118 -0.099831834 -0.11660591 0.26159057 0.19118077 0.42285776 0.26261187 0.21106292 0.22527963 0.24329576 0.12815472 0.057626452 0.38553688 0.13809581 0.29149687 0.37065035 0.06387586 0.18698333 -0.27394122 0.08390683 0.3420758 0.26372752 0.3538724 0.19147061 0.017693438 0.29537487 0.073972486 0.38397545 0.0781232 0.37444708 0.33703324 0.5763615 0.52620393 0.1561175 0.021508226 0.107132405 0.17126574 0.5446894 0.67276764 0.40679285 0.85425395 0.13589537 0.690802 0.2916369 0.2369211 0.08665489 0.23552215 0.6581362 0.46147752 -0.09601883 -0.2157633 -0.24490446 0.13269015 0.04316697 0.3734251 0.28053364 0.14190874 -0.0051264004 0.3866327 0.15256423 0.44374216 0.33582312 0.2031166 0.18337835 0.08161044 0.48612717 0.096774764 -0.06741871 0.2800948 0.378916 0.46012178 0.3001376 0.1514352 0.27358764 0.099311516 0.36853024 0.11880744 0.3447656 0.36149183 0.16036409 0.21540287 0.21879634 0.21930364 0.07280645 0.3387524 -0.032476358 0.55804056 0.19407158 0.27208227 0.06882655 0.012221432 0.49826196 0.25025797 0.45780328 0.19200662 0.48318225 0.39804217 0.27874058 0.069341645 0.27801138 0.50987256 0.22461256 0.46409112 0.42054036 0.5874802 0.23512089 0.33248353 0.28942144 0.3193968 0.36826774 0.19499248 0.5225288 0.19617593 0.3327715 0.078983955 0.048207015 0.20739473 0.18458675 0.04282569 0.13297455 0.20583196 0.24526478 0.09511715 -0.14226998 -0.0676838 0.047091365 -0.2314334 -0.13772753 -0.17199036 -0.09628582 0.039237678 -0.28634515 -0.19368021 -0.053352434 -0.31545433 -0.19449808 -0.20516716 0.13572164 0.06723884 0.00979404 0.08190258 -0.013908759 -0.06049068 -0.058641583 -0.0323708 0.22046739 0.10649287 -0.039912097 0.0077647297 0.18979806 0.13057895 0.0008980385 0.056345765 0.14611147 0.17116748 -0.0442842 0.00670398 -0.040776007 0.033083152 -0.023304934 0.0074630575 0.11078108 -0.18109176 -0.07824658 0.04915632 -0.022052411 0.13123265 -0.010825458 0.07362692 0.22360134 -0.26150537 0.06187184 0.09136679 0.20149633 0.33521712 0.24819013 0.1897947 0.2720925 -0.042960484 0.28624517 0.3576468 0.5645638 0.7421731 0.64124316 0.19088896 0.39169556 0.3694332 0.18738449 0.033440705 0.17591436 0.020142075 -0.110405624 0.29191056 0.29026195 0.54142 0.062216464 0.20942383 0.19049414 0.045612056 0.107313626 0.14610375 0.2760659 0.7238041 0.36820346 0.3251199 0.24681452 0.21976766 0.029865846 0.32468632 0.27267957 0.48612168 0.40768096 0.25773332 0.09625663 0.43158937 0.08676185 0.27968892 0.31961414 0.21328697 0.3302296 0.19132209 0.10518795 0.27315152 0.38649508 0.34756252 0.19988102 0.19151784 0.26197943 0.3381457 0.3431004 0.2605401 0.37880787 0.32978937 0.08572821 -0.021726748 0.3344193 0.3293918 0.20557982 0.2556077 0.2966047 0.17919281 0.14028674 0.45373482 0.34207222 0.72654504 0.5383365 0.7504269 0.54427856 0.5699642 0.69548386 0.47472736 0.06177412 0.032032207 -0.079939686 -0.02616885 -0.00057605654 -0.0025721565 -0.07980652 -0.028843012 -0.05542884 0.10241389 0.16726875 0.22697735 0.0028504222 0.2280643 0.020670751 -0.11950117 0.0035679375 0.02195899 0.07837507 0.17212647 0.15002544 0.06799555 0.18292223 -0.08405714 -0.11016617 -0.027139716 0.095600046 0.0638215 -0.020470938 0.0131097315 -0.07658035 -0.25572565 -0.039840557 -0.06372558 0.029975526 -0.19879635 0.047493495 -0.20584495 0.012791148 -0.093307205 0.1954786 0.05731407 0.1322406 0.10467046 -0.090344355 0.096754014 -0.0009013242 0.30341393 0.29172048 0.14060892 0.5469304 0.24969943 0.43101484 0.25852585 -0.2848438 -0.3576818 0.06427419 0.079932824 0.058981434 -0.012547888 -0.0014170036 -0.051092405 0.061995476 0.07746296 0.5640148 0.8062765 0.7877343 0.76985437 0.54251677 -0.1556721 0.12671015 -0.87117946 0.42623824 0.27495673 0.531278 0.5470994 0.34025475 -0.35743725 -0.46914813 -0.8105212 -0.27586737 0.048719514 -0.25315472 0.06091314 -0.29484817 -0.62021726 -0.8263978 -1.0049387 -0.42481077 -0.40802133 -0.19630222 -0.44514763 -0.52233577 -0.94609064 -1.0054371 -1.0418835 -0.337243 -0.35627255 -0.59850025 -0.3787733 -0.6648256 -0.8743278 -1.0589523 -1.171422 -0.31225556 -0.2666722 -0.3260364 -0.58281237 -0.5226987 -0.85892206 -0.6577004 -0.7028964 -0.3820547 -0.18107744 -0.36776945 -0.43363878 -0.49271473 -0.71885246 -1.0519451 -0.6923739 0.08056489 -0.2108269 -0.4415638 -0.42478698 -0.40238947 -0.5473517 -0.5517755 -0.4787506 -0.0054366216 -0.2545857 -0.11991739 -0.11538622 0.09103983 -0.21447282 0.43346453 0.28616992 0.07719074 0.006050221 0.16726476 -0.33959094 0.00803278 -0.02010852 -0.15532665 -0.07406715 0.022152966 0.19549383 -0.0010678025 -0.021154923 -0.50982225 -0.43803793 -0.3864921 -0.26366004 0.140783 0.02975789 -0.14748614 -0.14968444 -0.16268215 -0.31770346 -0.39074942 0.008490869 0.052582063 0.018391913 -0.12709293 -0.17893213 -0.42980522 -0.28073555 -0.18955849 -0.17906773 0.24348313 -0.10798477 0.13515735 -0.21033646 -0.08051608 -0.3544022 0.30489308 -0.5614215 0.18662794 0.12141839 0.023937652 -0.07476015 -0.0059287637 -0.41346085 0.024586178 -0.20450918 0.028038321 0.19681002 -0.020132951 -0.26448038 0.04993057 -0.40858275 -0.25337312 -0.24494067 -0.07324883 -0.13979816 -0.3582795 -0.39344904 -0.121437795 0.047509365 -0.004856222 -0.13838536 -0.39586475 -0.12474452 -0.19068617 -0.29738915 -0.10999697 0.008995779 -0.24717027 -0.39394495 0.038099196 -0.1860951 0.06302626 -0.1567138 -0.33922106 -0.027027855 -0.2300547 -0.078098446 0.2781558 0.028648755 -0.22203887 -0.31403023 -0.20686468 -0.1257339 -0.12115965 -0.1391652 -0.00094988814 0.021306688 0.016353024 -0.45189938 -0.23481908 -0.398234 -0.34951487 -0.022063041 0.037635308 0.003895946 0.114568576 -0.11379089 0.014160234 -0.05263882 -0.22190139 -0.27172685 -0.0937178 0.08667695 0.09626157 0.07201119 -0.1419699 0.027233804 -0.25987676 0.134663 0.24125953 0.03041272 -0.012326259 -0.14879972 -0.11518267 0.09534506 -0.1906695 -0.1202006 0.3913711 0.3752724 0.53135496 0.5192631 0.3510167 0.05653577 0.5102205 0.18689728 0.46268564 0.023273263 0.34550333 0.33113095 0.10989003 -0.1798288 0.23861758 -0.0068312283 0.37458187 0.33816594 0.16926683 0.2569849 0.078770734 -0.22802962 0.12525442 0.15876304 0.45918417 0.317659 0.122819275 0.18740305 0.043044597 -0.14344694 0.1293898 -0.020304883 0.27574122 0.16373897 0.3561906 0.26192355 -0.1750923 -0.36774898 0.30208185 0.0876226 0.41668788 0.33187047 0.31628093 0.30718705 0.40253374 -0.15830562 0.57887626 0.2214534 0.28351504 0.28992757 0.29603928 0.44913116 0.15746367 -0.091900945 0.36006695 -0.02818096 0.25760648 0.14096113 0.2960712 0.38776228 0.10548217 -0.4641652 0.75199854 -0.47092888 -0.0709507 -0.05593859 0.16638798 0.30364355 0.3599795 0.42416906 0.22997367 0.25889668 0.06947819 0.05837686 0.24459785 -0.10590313 -0.11023428 -0.26846892 -0.34752613 -0.09455771 0.13877141 0.031877063 0.11157904 -0.11904259 -0.0946341 -0.2605967 0.012550238 -0.20682287 0.25409618 0.1641381 -0.06583894 -0.028056657 -0.25911757 -0.24401063 -0.2610899 -0.13511285 0.23353776 0.21420676 -0.0150009 -0.4101896 -0.19088611 -0.17519486 -0.071015626 -0.05965491 0.22717465 0.22450374 0.006649898 -0.024340833 0.061736323 0.03967709 -0.1385812 0.032722767 0.046197966 0.16297066 0.13962008 -0.037274625 0.08759335 -0.04557756 0.09730971 -0.14827073 0.1658595 0.06532923 0.019224964 0.20832242 -0.12740529 -0.26066607 0.07794901 -0.35554373 0.08474171 -0.034397528 0.043731093 0.05571671 -0.047251362 0.014073737 0.07143691 0.05563143 -0.17340489 -0.38705343 -0.17856038 -0.2527941 -0.4619776 -0.9844657 0.11981711 -0.32347617 0.30248636 0.0461159 0.1399407 -0.040941376 -0.07706459 -0.60427547 0.47668856 -0.23966458 0.27581197 0.2558384 0.22822182 0.4354242 0.16028036 -0.829719 0.53479606 -0.439694 0.30931172 0.27388394 -0.0012948235 0.12673073 0.120205656 -0.97079134 0.7186802 -0.50889236 0.33218312 0.1515326 0.07038239 0.1934896 0.045055203 -1.0903164 0.73969054 -0.7534103 0.34322715 0.12600067 0.18273723 0.26680496 0.10053908 -0.9196381 0.60492605 -0.6085363 0.022266403 -0.057058234 -0.06786462 -0.0012834966 -0.031822253 0.034719333 0.060647205 -0.022927273 -1.1829356 -1.0409415 -0.893728 -0.3523626 -0.010414105 0.18231066 0.18735158 -0.43410003 -0.92248493 -0.9750964 -0.60536534 -0.16524076 0.4613217 0.5241552 0.88953173 0.42551747 -0.37140536 -0.807118 -0.5372993 -0.24567479 0.13519467 0.28397465 0.37669688 0.33042204 -0.5887075 -0.48586386 -0.4477679 -0.32691097 -0.0022197466 0.21013758 0.29331914 0.29345578 -0.6375995 -0.42726022 -0.22010107 -0.2581316 -0.020787384 0.37882298 0.21952951 0.3875664 -0.89293844 -0.7536168 -0.29296908 -0.03469442 0.02060649 0.10146782 0.44668296 0.08969143 -1.0487188 -0.7043241 -0.4020932 -0.11822516 0.20641959 0.40720022 -0.1454218 0.27414536 -0.7919494 -0.6211519 -0.42793745 0.10641401 0.049614992 0.1095785 -0.14058487 -0.08059314 -0.2886166 -0.2616306 -0.24697646 -0.06775828 -0.06657575 -0.024551801 0.022024997 -0.1363938 -0.21358351 -0.26638034 -0.0064604944 0.010169659 0.07653308 0.114828795 0.12018726 0.1912465 -0.15281062 -0.058119684 0.11946776 0.15946321 0.156272 0.08647157 0.15952528 0.4633121 -0.21453114 0.22310118 0.05546179 0.4074969 0.49690524 0.1876655 0.4666442 -0.0035057997 -0.14386639 -0.084342405 0.33829823 0.23739225 0.5367661 -0.32327473 0.94729865 -0.06283924 0.17407463 -0.074664675 0.13281079 0.23988575 0.24195302 -0.048390243 0.018511215 0.11679397 0.18697068 0.072648115 -0.07632486 -0.15903977 -0.1431513 -0.043442827 -0.12358152 0.45232826 -0.27576986 -0.07662919 0.015334348 0.5125714 -0.08511373 0.40467072 0.032300677 0.6948252 -0.7747534 0.12768567 0.09187752 0.040881023 -0.04161112 -0.22767316 -0.32336634 -0.2360937 0.107831456 -0.45539308 0.22496632 0.015394557 -0.0921749 -0.10428666 0.06916684 0.048425656 -0.15450254 0.15988226 -0.21912292 0.19253878 0.17002736 -0.010278225 0.17440547 0.1385815 0.09457288 0.1463706 0.2965467 0.035106536 0.3097169 -0.098323785 0.4779447 0.3650316 0.121912606 -0.03787771 -0.0973614 0.5413973 0.001118618 -0.046669055 0.5828742 0.25802994 -0.21016362 -0.038364466 0.24426928 -0.009829256 0.2726202 -0.29094657 0.76853937 -0.07591335 0.008937022 0.058059763 0.065071166 0.17786244 -0.032608777 0.2593993 -0.18799993 -0.44262293 -0.094492346 -0.14634243 -0.06927133 0.08003381 0.41075033 -0.1465685 0.33262083 -0.22355059 -0.26040035 -0.19285631 -0.2452869 -0.28589618 0.02466737 0.27191743 -0.23977016 0.12975913 -0.38575292 -0.1321811 -0.064605564 -0.26631412 0.08986494 0.38032743 -0.17900565 -0.050695848 -0.51402503 -0.25753435 -0.07861875 -0.17677292 0.041856326 0.2897941 -0.27450225 0.1392715 -0.46068162 -0.094499856 -0.040108398 -0.0405536 0.021536013 0.2924892 -0.029424835 0.05498025 0.060713187 -0.082914546 0.06346106 0.05723478 0.06018596 0.07358601 -0.10961295 0.095705785 0.22520138 -0.107516974 0.10514876 0.10120987 0.23942329 0.18795201 0.022625841 -0.07068754 0.23104517 0.06769226 0.26048243 0.14240535 0.2364997 -0.044276934 0.1822715 -0.0017300791 -0.0011671754 0.1938573 -0.05034486 0.030940263 0.1290513 0.34748444 0.20529285 0.27499697 -0.10110685 0.18051817 0.060570396 0.11521239 0.11293815 0.3730951 0.008077679 0.35004604 0.13095148 -0.096042655 0.19115095 0.23937468 0.27783564 0.3258447 0.12922938 0.31221387 -0.13479804 0.18746544 0.06345515 0.4001914 0.24190678 0.4556866 0.11798038 0.5288436 -0.10926053 -0.08996541 0.46600857 0.18246824 0.47451806 0.5402898 0.27692106 0.6226231 -0.16979195 0.03006599 0.13606639 0.64135337 0.29975262 0.6450843 0.19027333 0.7039065 -0.1822574 -0.11808317 0.28420657 0.43383113 0.6227892 0.2719444 0.6274231 0.5121985 0.096515544 0.27682754 0.3763706 0.59811306 0.7983167 0.42218614 0.65280104 0.5263609 0.1647587 0.28431448 0.31102893 0.28004366 0.6337146 0.46676773 0.6936263 0.6076187 0.0625806 -0.0745849 0.010545552 0.018774107 0.04955165 -0.046966188 -0.0008075163 0.032621995 0.07934038 -0.0001395941 0.049308326 -0.13618818 0.026524859 -0.31571057 0.12807776 -0.002194883 0.05663506 -0.03629246 0.2538918 0.19277437 -0.06597229 -0.37043664 0.20916687 -0.058757406 0.0062538893 0.07414309 0.11097148 0.33745882 -0.18938075 -0.36347902 0.16861682 0.2465101 -0.14129587 -0.005065847 0.107028134 0.06429383 0.16680747 0.11594386 -0.08705308 0.36669177 -0.4380368 -0.115639135 0.08111307 0.2044172 0.018869253 -0.19393235 0.37752497 0.15373914 -0.20001347 0.31016466 0.20080106 -0.042849775 -0.2236377 0.63226694 -0.012686109 0.2577175 -0.04447289 -0.08146702 -0.07853323 -0.020703338 -0.061729245 -0.08309714 0.08323145 0.035954274 -0.47017068 -0.1902896 -0.3096881 -0.15891203 -0.28734976 -0.28191796 -0.24935262 -0.24496162 0.12104857 -0.092991404 -0.13639015 -0.20758726 -0.36009547 -0.35928637 -0.020070376 -0.08727543 0.10237589 0.09592897 0.059515562 -0.059489843 -0.3117225 -0.41622597 0.0444885 -0.11327255 0.36863503 0.45860547 0.04583069 0.29854187 -0.023942012 -0.26172084 0.06945703 0.0046974174 0.78090185 0.5425246 0.5677448 0.32996103 0.16703975 0.018986894 0.04215099 0.087356575 0.77910405 0.732392 0.39817804 0.34253782 0.010850068 0.101552375 -0.047702096 -0.4109902 0.64379853 0.5620466 0.3824313 0.31106678 0.27834687 0.011018361 0.0649662 -0.30508968 0.91125286 0.23572975 0.16855067 0.29493058 0.15769914 0.017644761 0.24762325 -0.055801913 -0.27795652 -0.5040844 -0.46064404 -0.52157485 -0.598525 -0.6278842 -0.3701634 -0.25602934 -0.35956416 -0.30161628 -0.6569818 -0.3383818 -1.5135518 -0.40774655 -0.46684793 -0.6424059 -0.35626158 -0.47722638 -0.3644793 -0.39429885 -0.292132 -1.5159342 -0.32830828 -0.27941814 -0.22473149 -0.29879436 -0.24052195 -0.2071953 -0.21274656 -0.27582836 -0.19390102 -0.3136447 -0.27725643 -0.24405995 -0.14394991 -0.15782028 -0.1355431 -0.09238981 -0.218369 -0.07765574 -0.28846627 -0.18423851 -0.20420343 -0.10133196 -0.10822174 -0.05131286 -0.1347363 -0.13168955 -0.16182782 -0.18834768 -0.09843218 -0.14740883 -0.058580127 -0.13530728 -0.21606284 -0.12131461 -0.32130554 -0.21139221 -0.14931177 -0.18027388 -0.08836871 -0.10152181 -0.23700328 -0.25730634 -0.27561495 -0.52041936 -0.47789466 -0.38880694 -0.3355046 -0.29915112 -0.17535837 -0.14611071 -0.32464093 -0.38925 -0.29675773 -0.4558335 -0.36315125 -0.34075463 -0.32887146 -0.32215384 -0.42251766 -0.2594653 -0.32036075 -0.33087292 -0.37724096 -0.35153714 -0.28644344 -0.23345338 -0.2428976 -0.37134907 -0.258944 -0.24477421 -0.18914202 -0.24660756 -0.25503018 -0.31083563 -0.29335624 -0.31209773 -0.29164922 -0.21472971 -0.11311618 -0.16791344 -0.20716013 -0.19078182 -0.27680728 -0.28450134 -0.24356942 -0.1412751 -0.20075688 -0.035223573 -0.21416882 -0.29453954 -0.45074445 -0.3274264 -0.23656945 -0.17573772 -0.30154246 -0.16989905 -0.10018941 -0.32340243 -0.3320249 -0.3309426 -0.13169965 -0.20513563 -0.20547111 -0.28263497 -0.23227003 -0.25140375 -0.44813782 -0.76873124 -0.59077084 -0.7230297 -0.68930924 -0.7368981 -0.7220229 -0.75528544 -0.40789357 -0.525199 -0.5080834 -0.45910805 -0.43821636 -0.51948494 -0.6376688 -0.52340406 -0.4088347 -0.5523466 -0.4695102 -0.5400523 -0.39220327 -0.54963875 -0.61972976 -0.61166704 -0.4878374 -0.44854298 -0.4448182 -0.41854116 -0.4568466 -0.41980678 -0.50742394 -0.44503996 -0.38459218 -0.43452388 -0.30677286 -0.3181299 -0.34989843 -0.37125993 -0.4221057 -0.34158176 -0.33107468 -0.36922643 -0.3856302 -0.26430598 -0.30852053 -0.36364856 -0.46698853 -0.36640814 -0.4213999 -0.4250932 -0.34191817 -0.4084207 -0.32754016 -0.40790966 -0.4216269 -0.44114614 -0.3856584 -0.399789 -0.44617325 -0.33339256 -0.35263586 -0.3391452 -0.4687049 -0.3894792 -0.99512446 -0.9198568 -0.94169945 -1.06464 -1.0266881 -1.0911142 -0.9952024 -0.8940782 -0.8711287 -0.97121954 -0.82219917 -1.0287818 -1.0418215 -1.1225548 -0.82713425 -0.96564204 -0.9759631 -0.8696044 -0.97190475 -0.9160289 -1.0645437 -0.9696877 -0.87928456 -0.9189934 -0.8882 -0.9153201 -0.8310916 -0.86976045 -0.7830328 -0.7270995 -0.9001407 -0.83302665 -0.93139017 -0.81684583 -0.8045884 -0.7555417 -0.6858338 -0.680246 -0.76364 -0.74329835 -0.7921582 -0.84310275 -0.8380137 -0.67248887 -0.6807162 -0.64077187 -0.7562609 -0.70765024 -0.9157477 -0.8474817 -0.85822684 -0.83854395 -0.7667501 -0.74455684 -0.61648625 -0.8238982 -0.87999254 -0.8147673 -0.9108947 -0.82637763 -0.79469705 -0.831489 -0.76854163 -0.8880375 -0.05263263 -0.05496021 0.033838943 0.03824944 0.040823787 0.08076407 -0.080389105 0.063693434 0.27659985 -0.3028126 0.28075442 0.09267328 0.17404865 0.048798025 -0.15960442 -0.123618625 0.10607839 -0.04659293 -0.011074069 0.01098786 -0.06598952 -0.15732583 -0.20096327 -0.035680078 0.031953212 -0.011381532 -0.012432158 -0.0012456751 -0.10948024 -0.045708455 -0.1527457 0.004735369 0.020904725 0.0008509816 -0.079073556 -0.06566578 0.06322007 -0.040969823 -0.024601124 0.03129026 0.0043515703 -0.0849875 -0.08152825 -0.04988613 0.019737212 -0.0047931042 -0.0064301933 0.032479495 0.00062198925 -0.0153550375 -0.06374101 0.09337874 -0.011048451 0.02040129 0.020345788 0.06870921 0.009610392 -0.067833684 -0.079033226 0.039127663 -0.06513889 0.05852005 -0.07716929 0.0036780164 -0.24310608 -0.6391753 -0.4547342 -0.49609846 -0.3889926 -0.48771146 -0.7037375 -0.32787567 -0.4135327 -0.6462146 -0.5115762 -0.56102604 -0.44369748 -0.4758333 -0.5682601 -0.2871669 -0.4714531 -0.41140708 -0.4300688 -0.28114012 -0.30757225 -0.3203418 -0.39367837 -0.5751134 -0.31672606 -0.3262407 -0.28286907 -0.1641871 -0.038292 -0.088746406 -0.1401545 -0.34540668 -0.33371064 0.012432959 0.118119 0.088483766 0.14130276 0.22831179 0.11158753 0.028706204 -0.17637278 0.1272429 0.20587502 0.28191662 0.23010238 0.36543617 0.21516591 0.1625474 0.08390998 0.1564046 0.18755731 0.26188642 0.34228283 0.31512684 0.245621 0.22110493 0.06590226 -0.08990574 0.0054041115 0.15726867 0.11410319 0.159459 0.043563023 0.022273434 0.19497982 0.22716562 0.25450432 0.30903313 0.3102076 0.30297548 0.279469 0.18143055 0.13433297 0.22324829 0.27142653 0.21485302 0.19358236 0.29702702 0.19691996 0.25132403 0.29842457 0.19730684 0.22428542 0.262015 0.1749774 0.19357446 0.2197314 0.1808665 0.22288162 0.01519853 0.16838093 0.09980718 0.23418261 0.054312326 0.18427777 0.1307685 -0.022733565 0.097889446 0.009219771 0.043846745 -0.04454052 0.019099955 -0.03474388 0.16684578 0.02385733 -0.08473311 -0.20848653 -0.047657326 -0.20657285 -0.36632153 -0.14941613 -0.37362292 -0.14992647 0.025745925 -0.121054634 -0.047538396 -0.72053176 -0.30371708 -0.30699626 -0.24203108 -0.11550411 -0.26296213 -0.09633339 -0.3649767 -0.28325605 -0.5799534 -0.27507818 -0.38688284 0.11091932 0.15919557 0.28578827 0.23388235 0.20146567 0.23704779 0.2597599 0.1519928 0.034900047 0.06232139 0.071598366 0.25925812 0.156985 0.17654862 0.1495007 0.19155304 0.23323707 0.10441505 0.14705443 0.1849289 0.13270082 0.13284022 0.110328786 0.11436835 0.09682547 0.12561512 0.06456621 0.11045789 0.03663384 0.058318477 0.08392153 0.11851953 0.10039632 -0.025080174 0.04447104 -0.03778973 -0.014943243 -0.07325756 0.068449154 0.032650664 -0.08269809 0.028069442 -0.15724766 -0.006685039 -0.23282877 -0.34842575 -0.16703452 0.0037357267 0.22071366 0.0052353856 -0.056965087 -0.08365411 -0.07266856 -0.12226598 -0.14153776 -0.20138465 0.044054087 -0.008702009 0.029214071 -0.04579731 -0.07585497 0.0048184902 0.010609444 -0.0028386982 0.2528895 0.21212862 0.2994869 0.23334023 0.30635893 0.3100583 0.2634815 0.17718849 0.28188837 0.20580107 0.25839442 0.27755776 0.28509754 0.33839887 0.23460327 0.26059568 0.3790917 0.28656882 0.3337154 0.28575364 0.23316069 0.33794278 0.35399956 0.24097618 0.32799497 0.25422144 0.21775432 0.28341085 0.14179285 0.27312553 0.24089092 0.2900323 0.2865855 0.2138862 0.17949063 0.16819707 0.2515829 0.21912408 0.16327749 0.25649166 0.3207368 0.22850907 0.206901 0.15253761 0.13439798 0.22226864 0.10435622 0.18451561 0.19740547 0.11162408 0.0807779 0.07931388 0.046522114 0.11065333 -0.17327501 0.03974458 0.004880157 -0.087777905 -0.06937118 -0.2525715 -0.20094608 -0.15153739 -0.14959782 -0.09452467 0.38322333 0.48171526 0.5885588 0.585611 0.5629614 0.64208037 0.58979005 0.461038 0.46610397 0.4869157 0.52032006 0.616737 0.5556072 0.63846445 0.60706466 0.4309343 0.58075446 0.49822086 0.5457849 0.5689752 0.54367626 0.5709128 0.5863072 0.49698338 0.4658976 0.5750776 0.46967357 0.55506545 0.41468385 0.5762016 0.46261922 0.5165432 0.45616913 0.48742816 0.44374 0.3805233 0.46834 0.38991132 0.37550056 0.43001708 0.38937053 0.48160464 0.31655133 0.35629836 0.23916638 0.2742047 0.2847419 0.34109217 0.37363252 0.23649064 0.34271032 0.39754876 0.2315167 0.09352674 -0.011909646 0.18020394 -0.20741592 -0.6076671 -0.24018878 -0.7436987 -0.4083064 -0.4216776 -0.016090909 -0.89278746 0.01822348 -0.08265928 -0.021810934 0.062374353 -0.025404535 0.019739732 -0.059406362 -0.031800363 0.08260063 0.04418049 0.038127095 -0.110709675 0.025468422 0.03356309 0.11601628 0.09495824 0.06452564 0.07975412 0.06419838 0.13759832 0.0071352827 0.044251163 0.103412375 0.056413356 0.095587894 0.04128978 0.06063468 0.124551736 0.07528681 0.013468163 0.04412325 0.037283104 0.11866994 0.032702956 -0.063309476 0.0026407696 0.044644535 -0.12664568 -0.14085786 -0.03405445 -0.026147135 -0.46647382 -0.3505279 -0.45527032 -0.8808912 -0.5548493 -0.6751176 -0.41386503 -0.36806902 -0.64947635 -0.77918273 -0.8754779 -0.8956865 -0.570073 -0.5959468 -0.14772163 0.080462605 0.0034919903 0.022272736 0.019821346 -0.081290565 0.014027394 -0.013603851 -0.051556114 0.17127281 0.1225763 0.21629848 0.31516972 0.29034558 0.17933296 0.11542075 0.05246815 0.1564375 0.16726965 0.20096624 0.24484184 0.13342008 0.07912168 0.03831107 0.0219856 0.042177476 0.1372316 0.20304179 0.17450881 0.088768534 0.07975701 0.03528302 -0.02023059 0.0027049826 0.052151654 0.05825118 0.12709855 0.07418441 -0.00075475685 -0.0714216 -0.07420537 -0.058262754 -0.1309701 -0.12896287 0.012572046 -0.069791906 -0.034119647 -0.17546287 -0.1384078 -0.20724393 -0.13697466 -0.14828762 -0.09317982 -0.08495178 -0.1534993 -0.27631226 -0.3320139 -0.3565923 -0.25368023 -0.31398013 -0.26962024 -0.2660277 -0.34658378 -0.5124825 -0.26549366 -0.37366545 -0.45421007 -0.3962738 -0.49130523 -0.2657634 -0.28250787 -0.46751693 -0.4056076 0.44358426 -0.85606354 0.082694955 -0.10134492 0.31580454 0.2780148 0.038776997 0.56802195 -0.20029438 0.020842195 0.53322387 0.21702941 -0.7041511 -0.077961616 -0.20492192 0.020649226 -0.062361285 0.3676717 -0.049550846 0.14632058 0.08696536 0.19642493 -0.058627255 -0.48399267 -0.15709032 0.51861435 0.20399055 0.3407203 0.015211383 -0.12746346 0.0031909763 -0.010278728 0.60188305 -0.03992743 0.5067794 0.21089758 0.017951263 0.30529922 0.032129165 -0.22977535 0.19135481 0.2640872 0.27558836 0.35518858 -0.070194915 0.19169901 0.026981043 0.1574319 0.1687941 0.51912737 0.38819808 0.16787142 0.2133233 0.25636515 0.23233396 -0.105873585 -0.011598488 0.2015272 0.114397235 0.23251577 -0.000801739 0.2130151 0.092721805 -0.2824363 0.44180608 0.4262403 -0.12226548 0.38259995 -0.0013687613 0.36332098 -0.5139237 0.50259155 0.0019325357 -0.0004090396 0.4482852 0.060125485 0.26674607 -0.22864287 0.0072637713 -0.27769786 -0.35017088 0.23233779 -0.04802876 0.18240373 -0.3234035 0.1589062 -0.09544587 -0.4287218 0.1474299 -0.023432774 0.2418014 -0.05406192 0.2501743 -0.17890258 -0.0666599 -0.18035147 -0.2570097 0.2490371 -0.13350245 0.34784383 -0.24529588 0.33801445 -0.12938564 -0.022873605 0.3857206 -0.6918175 0.3548814 0.33034024 -0.035141315 0.037076425 0.4360271 -0.28059146 -0.5962275 0.34180766 0.21774799 0.17612292 -0.16807514 0.27863058 0.11136915 0.0885625 0.16905166 0.045345217 0.1874237 -0.07668014 0.26282197 -0.057134513 0.1329625 0.27449575 -0.15648413 0.12385269 -0.2726906 0.08647329 -0.09670978 -0.02312439 0.12476963 -0.25124967 -0.11256934 0.23349297 -0.12691905 0.02200493 0.18297698 0.11646032 0.19058666 -0.32379743 -0.058042232 0.17255074 0.17799291 0.0934206 0.39887637 0.17659901 0.2022751 -0.090029374 -0.12490953 0.1211243 0.10727181 0.09050731 0.10544146 -0.15446763 -0.004565603 -0.0016972763 -0.111106694 0.148756 0.09899431 0.0724561 0.24769644 -0.029215522 -0.06642903 0.045959663 -0.22984065 0.18239677 -0.06815458 0.0496478 0.13814403 -0.12278918 0.077758655 0.1458555 -0.20252931 -0.06296282 -0.1142156 -0.075850785 0.20374647 -0.17815025 -0.22930165 0.04773562 -0.15808272 0.033892553 -0.15499505 0.0035339687 0.45295286 -0.014308599 -0.048573513 0.09976036 -0.31980518 -0.11793985 -0.09439932 0.31475112 0.42423955 0.6920865 0.57711077 0.42416522 0.32180455 0.40539694 0.62143457 0.6007461 0.435561 0.63294005 0.6273972 0.4166304 0.11001504 0.26568642 0.2498223 0.5279377 0.44372112 0.61870664 0.5243675 0.36249134 0.63260436 -0.0024531805 0.50806767 0.55524063 0.69224113 0.42824608 0.52927125 0.7222206 -0.08115933 0.5301726 0.32080144 0.6925427 0.48201707 0.729196 0.3821693 0.6795853 0.2800672 0.12805025 0.59536755 0.67405015 0.6544852 0.4884022 0.7807716 0.6957379 -0.2003884 0.38696703 0.52591014 0.7832705 0.5472053 0.55842936 0.6365117 0.9317326 0.40766388 0.29161662 0.39789042 0.5495731 0.69884527 0.41565818 0.41396818 0.40117672 -0.045972645 -0.02090706 0.049733326 -0.03479234 0.07152259 0.028679319 -0.022530496 -0.07182097 -0.3439378 -0.050188992 -0.91013587 -0.41957447 -0.5301511 